Language model created by QuickLM on Mon May 28 05:22:32 EDT 2012
Copyright (c) 1996-2000
Carnegie Mellon University and Alexander I. Rudnicky

This model based on a corpus of 4825 sentences and 4827 words
The (fixed) discount mass is 0.5

\data\
ngram 1=4827
ngram 2=9650
ngram 3=4825

\1-grams:
-0.7782 </s> -0.3010
-0.7782 <s> -0.2218
-4.4616 A -0.2218
-4.4616 ABANDONED -0.2218
-4.4616 ABILITY -0.2218
-4.4616 ABLE -0.2218
-4.4616 ABORTION -0.2218
-4.4616 ABOUT -0.2218
-4.4616 ABOVE -0.2218
-4.4616 ABROAD -0.2218
-4.4616 ABSENCE -0.2218
-4.4616 ABSOLUTELY -0.2218
-4.4616 ABUSE -0.2218
-4.4616 ABUSES -0.2218
-4.4616 ACADEMIC -0.2218
-4.4616 ACCEPT -0.2218
-4.4616 ACCEPTABLE -0.2218
-4.4616 ACCEPTANCE -0.2218
-4.4616 ACCEPTED -0.2218
-4.4616 ACCEPTING -0.2218
-4.4616 ACCESS -0.2218
-4.4616 ACCIDENT -0.2218
-4.4616 ACCORD -0.2218
-4.4616 ACCORDING -0.2218
-4.4616 ACCOUNT -0.2218
-4.4616 ACCOUNTANTS -0.2218
-4.4616 ACCOUNTED -0.2218
-4.4616 ACCOUNTING -0.2218
-4.4616 ACCOUNTS -0.2218
-4.4616 ACCURATE -0.2218
-4.4616 ACCUSED -0.2218
-4.4616 ACHIEVE -0.2218
-4.4616 ACHIEVED -0.2218
-4.4616 ACKNOWLEDGED -0.2218
-4.4616 ACKNOWLEDGES -0.2218
-4.4616 ACQUIRE -0.2218
-4.4616 ACQUIRED -0.2218
-4.4616 ACQUIRING -0.2218
-4.4616 ACQUISITION -0.2218
-4.4616 ACQUISITIONS -0.2218
-4.4616 ACRE -0.2218
-4.4616 ACRES -0.2218
-4.4616 ACROSS -0.2218
-4.4616 ACT -0.2218
-4.4616 ACTED -0.2218
-4.4616 ACTING -0.2218
-4.4616 ACTION -0.2218
-4.4616 ACTIONS -0.2218
-4.4616 ACTIVE -0.2218
-4.4616 ACTIVELY -0.2218
-4.4616 ACTIVISTS -0.2218
-4.4616 ACTIVITIES -0.2218
-4.4616 ACTIVITY -0.2218
-4.4616 ACTS -0.2218
-4.4616 ACTUAL -0.2218
-4.4616 ACTUALLY -0.2218
-4.4616 AD -0.2218
-4.4616 ADAMS -0.2218
-4.4616 ADD -0.2218
-4.4616 ADDED -0.2218
-4.4616 ADDING -0.2218
-4.4616 ADDITION -0.2218
-4.4616 ADDITIONAL -0.2218
-4.4616 ADDRESS -0.2218
-4.4616 ADDS -0.2218
-4.4616 ADEQUATE -0.2218
-4.4616 ADJUSTABLE -0.2218
-4.4616 ADJUSTED -0.2218
-4.4616 ADJUSTMENT -0.2218
-4.4616 ADJUSTMENTS -0.2218
-4.4616 ADMINISTRATION -0.2218
-4.4616 ADMINISTRATIVE -0.2218
-4.4616 ADMINISTRATOR -0.2218
-4.4616 ADMIRAL -0.2218
-4.4616 ADMIT -0.2218
-4.4616 ADMITS -0.2218
-4.4616 ADMITTED -0.2218
-4.4616 ADOPT -0.2218
-4.4616 ADOPTED -0.2218
-4.4616 ADS -0.2218
-4.4616 ADULTS -0.2218
-4.4616 ADVANCE -0.2218
-4.4616 ADVANCED -0.2218
-4.4616 ADVANCES -0.2218
-4.4616 ADVANCING -0.2218
-4.4616 ADVANTAGE -0.2218
-4.4616 ADVANTAGES -0.2218
-4.4616 ADVERTISERS -0.2218
-4.4616 ADVERTISING -0.2218
-4.4616 ADVICE -0.2218
-4.4616 ADVISED -0.2218
-4.4616 ADVISER -0.2218
-4.4616 ADVISERS -0.2218
-4.4616 ADVISORY -0.2218
-4.4616 ADVOCATES -0.2218
-4.4616 AEROSPACE -0.2218
-4.4616 AFFAIR -0.2218
-4.4616 AFFAIRS -0.2218
-4.4616 AFFECT -0.2218
-4.4616 AFFECTED -0.2218
-4.4616 AFFECTING -0.2218
-4.4616 AFFILIATE -0.2218
-4.4616 AFFILIATED -0.2218
-4.4616 AFFILIATES -0.2218
-4.4616 AFFORD -0.2218
-4.4616 AFGHAN -0.2218
-4.4616 AFGHANISTAN -0.2218
-4.4616 AFRAID -0.2218
-4.4616 AFRICA -0.2218
-4.4616 AFRICAN -0.2218
-4.4616 AFTER -0.2218
-4.4616 AFTERNOON -0.2218
-4.4616 AGAIN -0.2218
-4.4616 AGAINST -0.2218
-4.4616 AGE -0.2218
-4.4616 AGENCIES -0.2218
-4.4616 AGENCY -0.2218
-4.4616 AGENDA -0.2218
-4.4616 AGENT -0.2218
-4.4616 AGENTS -0.2218
-4.4616 AGGRESSIVE -0.2218
-4.4616 AGGRESSIVELY -0.2218
-4.4616 AGING -0.2218
-4.4616 AGO -0.2218
-4.4616 AGREE -0.2218
-4.4616 AGREED -0.2218
-4.4616 AGREEING -0.2218
-4.4616 AGREEMENT -0.2218
-4.4616 AGREEMENTS -0.2218
-4.4616 AGREES -0.2218
-4.4616 AGRICULTURAL -0.2218
-4.4616 AGRICULTURE -0.2218
-4.4616 AHEAD -0.2218
-4.4616 AID -0.2218
-4.4616 AIDE -0.2218
-4.4616 AIDED -0.2218
-4.4616 AIDES -0.2218
-4.4616 AIDS -0.2218
-4.4616 AILING -0.2218
-4.4616 AIM -0.2218
-4.4616 AIMED -0.2218
-4.4616 AIR -0.2218
-4.4616 AIRBUS -0.2218
-4.4616 AIRCRAFT -0.2218
-4.4616 AIRLINE -0.2218
-4.4616 AIRLINES -0.2218
-4.4616 AIRPORT -0.2218
-4.4616 AIRPORTS -0.2218
-4.4616 AIRWAYS -0.2218
-4.4616 AL -0.2218
-4.4616 ALABAMA -0.2218
-4.4616 ALAN -0.2218
-4.4616 ALASKA -0.2218
-4.4616 ALBERT -0.2218
-4.4616 ALBERTA -0.2218
-4.4616 ALCOHOL -0.2218
-4.4616 ALEXANDER -0.2218
-4.4616 ALIVE -0.2218
-4.4616 ALL -0.2218
-4.4616 ALLEGATIONS -0.2218
-4.4616 ALLEGED -0.2218
-4.4616 ALLEGEDLY -0.2218
-4.4616 ALLEGES -0.2218
-4.4616 ALLEGHENY -0.2218
-4.4616 ALLEGING -0.2218
-4.4616 ALLEGIS -0.2218
-4.4616 ALLEN -0.2218
-4.4616 ALLIANCE -0.2218
-4.4616 ALLIED -0.2218
-4.4616 ALLIES -0.2218
-4.4616 ALLOW -0.2218
-4.4616 ALLOWED -0.2218
-4.4616 ALLOWING -0.2218
-4.4616 ALLOWS -0.2218
-4.4616 ALMOST -0.2218
-4.4616 ALONE -0.2218
-4.4616 ALONG -0.2218
-4.4616 ALREADY -0.2218
-4.4616 ALSO -0.2218
-4.4616 ALTER -0.2218
-4.4616 ALTERNATIVE -0.2218
-4.4616 ALTERNATIVES -0.2218
-4.4616 ALTHOUGH -0.2218
-4.4616 ALUMINUM -0.2218
-4.4616 ALWAYS -0.2218
-4.4616 AM -0.2218
-4.4616 AMBASSADOR -0.2218
-4.4616 AMBITIOUS -0.2218
-4.4616 AMENDED -0.2218
-4.4616 AMENDMENT -0.2218
-4.4616 AMENDMENTS -0.2218
-4.4616 AMERICA -0.2218
-4.4616 AMERICAN -0.2218
-4.4616 AMERICANS -0.2218
-4.4616 AMID -0.2218
-4.4616 AMOCO -0.2218
-4.4616 AMONG -0.2218
-4.4616 AMOUNT -0.2218
-4.4616 AMOUNTS -0.2218
-4.4616 AN -0.2218
-4.4616 ANALYSIS -0.2218
-4.4616 ANALYST -0.2218
-4.4616 ANALYSTS -0.2218
-4.4616 AND -0.2218
-4.4616 ANDERSON -0.2218
-4.4616 ANDREW -0.2218
-4.4616 ANGELES -0.2218
-4.4616 ANGRY -0.2218
-4.4616 ANIMAL -0.2218
-4.4616 ANIMALS -0.2218
-4.4616 ANNOUNCE -0.2218
-4.4616 ANNOUNCED -0.2218
-4.4616 ANNOUNCEMENT -0.2218
-4.4616 ANNOUNCING -0.2218
-4.4616 ANNUAL -0.2218
-4.4616 ANNUALLY -0.2218
-4.4616 ANOTHER -0.2218
-4.4616 ANSWER -0.2218
-4.4616 ANSWERS -0.2218
-4.4616 ANTHONY -0.2218
-4.4616 ANTI -0.2218
-4.4616 ANTICIPATED -0.2218
-4.4616 ANTICIPATION -0.2218
-4.4616 ANTITRUST -0.2218
-4.4616 ANTONIO -0.2218
-4.4616 ANY -0.2218
-4.4616 ANYBODY -0.2218
-4.4616 ANYMORE -0.2218
-4.4616 ANYONE -0.2218
-4.4616 ANYTHING -0.2218
-4.4616 ANYWAY -0.2218
-4.4616 ANYWHERE -0.2218
-4.4616 APART -0.2218
-4.4616 APARTHEID -0.2218
-4.4616 APARTMENT -0.2218
-4.4616 APPAREL -0.2218
-4.4616 APPARENT -0.2218
-4.4616 APPARENTLY -0.2218
-4.4616 APPEAL -0.2218
-4.4616 APPEALED -0.2218
-4.4616 APPEALS -0.2218
-4.4616 APPEAR -0.2218
-4.4616 APPEARANCE -0.2218
-4.4616 APPEARED -0.2218
-4.4616 APPEARS -0.2218
-4.4616 APPLE -0.2218
-4.4616 APPLICATION -0.2218
-4.4616 APPLICATIONS -0.2218
-4.4616 APPLIED -0.2218
-4.4616 APPLY -0.2218
-4.4616 APPOINTED -0.2218
-4.4616 APPOINTMENT -0.2218
-4.4616 APPRECIATION -0.2218
-4.4616 APPROACH -0.2218
-4.4616 APPROACHED -0.2218
-4.4616 APPROPRIATE -0.2218
-4.4616 APPROPRIATIONS -0.2218
-4.4616 APPROVAL -0.2218
-4.4616 APPROVE -0.2218
-4.4616 APPROVED -0.2218
-4.4616 APPROXIMATELY -0.2218
-4.4616 APRIL -0.2218
-4.4616 AQUINO -0.2218
-4.4616 ARAB -0.2218
-4.4616 ARABIA -0.2218
-4.4616 ARBITRAGE -0.2218
-4.4616 ARBITRAGERS -0.2218
-4.4616 ARBITRATION -0.2218
-4.4616 ARE -0.2218
-4.4616 AREA -0.2218
-4.4616 AREAS -0.2218
-4.4616 ARGENTINA -0.2218
-4.4616 ARGUE -0.2218
-4.4616 ARGUED -0.2218
-4.4616 ARGUES -0.2218
-4.4616 ARGUING -0.2218
-4.4616 ARGUMENT -0.2218
-4.4616 ARGUMENTS -0.2218
-4.4616 ARIZONA -0.2218
-4.4616 ARKANSAS -0.2218
-4.4616 ARM -0.2218
-4.4616 ARMED -0.2218
-4.4616 ARMS -0.2218
-4.4616 ARMY -0.2218
-4.4616 ARNOLD -0.2218
-4.4616 AROUND -0.2218
-4.4616 ARRANGE -0.2218
-4.4616 ARRANGED -0.2218
-4.4616 ARRANGEMENT -0.2218
-4.4616 ARRANGEMENTS -0.2218
-4.4616 ARREST -0.2218
-4.4616 ARRESTED -0.2218
-4.4616 ARRIVED -0.2218
-4.4616 ART -0.2218
-4.4616 ARTHUR -0.2218
-4.4616 ARTICLE -0.2218
-4.4616 ARTICLES -0.2218
-4.4616 ARTIST -0.2218
-4.4616 ARTISTS -0.2218
-4.4616 ARTS -0.2218
-4.4616 AS -0.2218
-4.4616 ASBESTOS -0.2218
-4.4616 ASIA -0.2218
-4.4616 ASIAN -0.2218
-4.4616 ASIDE -0.2218
-4.4616 ASK -0.2218
-4.4616 ASKED -0.2218
-4.4616 ASKING -0.2218
-4.4616 ASKS -0.2218
-4.4616 ASPECTS -0.2218
-4.4616 ASSEMBLY -0.2218
-4.4616 ASSERTED -0.2218
-4.4616 ASSERTS -0.2218
-4.4616 ASSESSMENT -0.2218
-4.4616 ASSET -0.2218
-4.4616 ASSETS -0.2218
-4.4616 ASSIGNED -0.2218
-4.4616 ASSISTANCE -0.2218
-4.4616 ASSISTANT -0.2218
-4.4616 ASSOCIATE -0.2218
-4.4616 ASSOCIATED -0.2218
-4.4616 ASSOCIATES -0.2218
-4.4616 ASSOCIATION -0.2218
-4.4616 ASSUME -0.2218
-4.4616 ASSUMED -0.2218
-4.4616 ASSUMING -0.2218
-4.4616 ASSUMPTION -0.2218
-4.4616 ASSURANCE -0.2218
-4.4616 ASSURED -0.2218
-4.4616 AT -0.2218
-4.4616 ATLANTA -0.2218
-4.4616 ATLANTIC -0.2218
-4.4616 ATMOSPHERE -0.2218
-4.4616 ATTACK -0.2218
-4.4616 ATTACKED -0.2218
-4.4616 ATTACKS -0.2218
-4.4616 ATTEMPT -0.2218
-4.4616 ATTEMPTED -0.2218
-4.4616 ATTEMPTING -0.2218
-4.4616 ATTEMPTS -0.2218
-4.4616 ATTEND -0.2218
-4.4616 ATTENDANTS -0.2218
-4.4616 ATTENDED -0.2218
-4.4616 ATTENTION -0.2218
-4.4616 ATTITUDE -0.2218
-4.4616 ATTORNEY -0.2218
-4.4616 ATTORNEYS -0.2218
-4.4616 ATTRACT -0.2218
-4.4616 ATTRACTED -0.2218
-4.4616 ATTRACTIVE -0.2218
-4.4616 ATTRIBUTED -0.2218
-4.4616 AUCTION -0.2218
-4.4616 AUDIENCE -0.2218
-4.4616 AUDIT -0.2218
-4.4616 AUDITORS -0.2218
-4.4616 AUGUST -0.2218
-4.4616 AUSTIN -0.2218
-4.4616 AUSTRALIA -0.2218
-4.4616 AUSTRALIAN -0.2218
-4.4616 AUTHOR -0.2218
-4.4616 AUTHORITIES -0.2218
-4.4616 AUTHORITY -0.2218
-4.4616 AUTHORIZED -0.2218
-4.4616 AUTO -0.2218
-4.4616 AUTOMATED -0.2218
-4.4616 AUTOMATIC -0.2218
-4.4616 AUTOMATICALLY -0.2218
-4.4616 AUTOMOBILE -0.2218
-4.4616 AUTOMOTIVE -0.2218
-4.4616 AVAILABLE -0.2218
-4.4616 AVENUE -0.2218
-4.4616 AVERAGE -0.2218
-4.4616 AVERAGED -0.2218
-4.4616 AVIATION -0.2218
-4.4616 AVOID -0.2218
-4.4616 AVOIDED -0.2218
-4.4616 AWARD -0.2218
-4.4616 AWARDED -0.2218
-4.4616 AWARDS -0.2218
-4.4616 AWARE -0.2218
-4.4616 AWAY -0.2218
-4.4616 BABY -0.2218
-4.4616 BACHE -0.2218
-4.4616 BACK -0.2218
-4.4616 BACKED -0.2218
-4.4616 BACKGROUND -0.2218
-4.4616 BACKING -0.2218
-4.4616 BAD -0.2218
-4.4616 BADLY -0.2218
-4.4616 BAGS -0.2218
-4.4616 BAILOUT -0.2218
-4.4616 BAKER -0.2218
-4.4616 BALANCE -0.2218
-4.4616 BALANCED -0.2218
-4.4616 BALL -0.2218
-4.4616 BALTIMORE -0.2218
-4.4616 BAN -0.2218
-4.4616 BANCORP -0.2218
-4.4616 BAND -0.2218
-4.4616 BANK -0.2218
-4.4616 BANKAMERICA -0.2218
-4.4616 BANKER -0.2218
-4.4616 BANKERS -0.2218
-4.4616 BANKING -0.2218
-4.4616 BANKRUPTCY -0.2218
-4.4616 BANKS -0.2218
-4.4616 BANNED -0.2218
-4.4616 BAR -0.2218
-4.4616 BARBARA -0.2218
-4.4616 BARELY -0.2218
-4.4616 BARGAIN -0.2218
-4.4616 BARGAINING -0.2218
-4.4616 BARNEY -0.2218
-4.4616 BARRED -0.2218
-4.4616 BARREL -0.2218
-4.4616 BARRELS -0.2218
-4.4616 BARRIERS -0.2218
-4.4616 BARRING -0.2218
-4.4616 BARRY -0.2218
-4.4616 BARS -0.2218
-4.4616 BASE -0.2218
-4.4616 BASEBALL -0.2218
-4.4616 BASED -0.2218
-4.4616 BASES -0.2218
-4.4616 BASIC -0.2218
-4.4616 BASICALLY -0.2218
-4.4616 BASIS -0.2218
-4.4616 BASS -0.2218
-4.4616 BATTLE -0.2218
-4.4616 BATTLES -0.2218
-4.4616 BAY -0.2218
-4.4616 BE -0.2218
-4.4616 BEACH -0.2218
-4.4616 BEAR -0.2218
-4.4616 BEARING -0.2218
-4.4616 BEARISH -0.2218
-4.4616 BEAT -0.2218
-4.4616 BECAME -0.2218
-4.4616 BECAUSE -0.2218
-4.4616 BECOME -0.2218
-4.4616 BECOMES -0.2218
-4.4616 BECOMING -0.2218
-4.4616 BED -0.2218
-4.4616 BEEF -0.2218
-4.4616 BEEN -0.2218
-4.4616 BEER -0.2218
-4.4616 BEFORE -0.2218
-4.4616 BEGAN -0.2218
-4.4616 BEGIN -0.2218
-4.4616 BEGINNING -0.2218
-4.4616 BEGINS -0.2218
-4.4616 BEGUN -0.2218
-4.4616 BEHALF -0.2218
-4.4616 BEHAVIOR -0.2218
-4.4616 BEHIND -0.2218
-4.4616 BEIJING -0.2218
-4.4616 BEING -0.2218
-4.4616 BELGIAN -0.2218
-4.4616 BELGIQUE -0.2218
-4.4616 BELIEF -0.2218
-4.4616 BELIEVE -0.2218
-4.4616 BELIEVED -0.2218
-4.4616 BELIEVES -0.2218
-4.4616 BELL -0.2218
-4.4616 BELOW -0.2218
-4.4616 BELT -0.2218
-4.4616 BENCHMARK -0.2218
-4.4616 BENEDETTI -0.2218
-4.4616 BENEFICIAL -0.2218
-4.4616 BENEFIT -0.2218
-4.4616 BENEFITED -0.2218
-4.4616 BENEFITS -0.2218
-4.4616 BENNETT -0.2218
-4.4616 BENTSEN -0.2218
-4.4616 BENZ -0.2218
-4.4616 BERLIN -0.2218
-4.4616 BESIDES -0.2218
-4.4616 BEST -0.2218
-4.4616 BET -0.2218
-4.4616 BETTER -0.2218
-4.4616 BETTING -0.2218
-4.4616 BETWEEN -0.2218
-4.4616 BEVERLY -0.2218
-4.4616 BEYOND -0.2218
-4.4616 BID -0.2218
-4.4616 BIDDER -0.2218
-4.4616 BIDDERS -0.2218
-4.4616 BIDDING -0.2218
-4.4616 BIDS -0.2218
-4.4616 BIG -0.2218
-4.4616 BIGGER -0.2218
-4.4616 BIGGEST -0.2218
-4.4616 BILL -0.2218
-4.4616 BILLION -0.2218
-4.4616 BILLIONS -0.2218
-4.4616 BILLS -0.2218
-4.4616 BIOTECHNOLOGY -0.2218
-4.4616 BIRTH -0.2218
-4.4616 BIT -0.2218
-4.4616 BITTER -0.2218
-4.4616 BLACK -0.2218
-4.4616 BLACKS -0.2218
-4.4616 BLAME -0.2218
-4.4616 BLAMED -0.2218
-4.4616 BLOC -0.2218
-4.4616 BLOCK -0.2218
-4.4616 BLOCKED -0.2218
-4.4616 BLOCKS -0.2218
-4.4616 BLOOD -0.2218
-4.4616 BLOW -0.2218
-4.4616 BLUE -0.2218
-4.4616 BOARD -0.2218
-4.4616 BOARDS -0.2218
-4.4616 BOAT -0.2218
-4.4616 BOB -0.2218
-4.4616 BODY -0.2218
-4.4616 BOEING -0.2218
-4.4616 BOESKY -0.2218
-4.4616 BOLSTER -0.2218
-4.4616 BOMB -0.2218
-4.4616 BOND -0.2218
-4.4616 BONDS -0.2218
-4.4616 BONN -0.2218
-4.4616 BONUS -0.2218
-4.4616 BONUSES -0.2218
-4.4616 BOOK -0.2218
-4.4616 BOOKS -0.2218
-4.4616 BOOM -0.2218
-4.4616 BOOMING -0.2218
-4.4616 BOOST -0.2218
-4.4616 BOOSTED -0.2218
-4.4616 BOOSTING -0.2218
-4.4616 BORDER -0.2218
-4.4616 BORK -0.2218
-4.4616 BORN -0.2218
-4.4616 BORROW -0.2218
-4.4616 BORROWED -0.2218
-4.4616 BORROWERS -0.2218
-4.4616 BORROWING -0.2218
-4.4616 BORROWINGS -0.2218
-4.4616 BOSS -0.2218
-4.4616 BOSTON -0.2218
-4.4616 BOTH -0.2218
-4.4616 BOTTOM -0.2218
-4.4616 BOUGHT -0.2218
-4.4616 BOUND -0.2218
-4.4616 BOX -0.2218
-4.4616 BOY -0.2218
-4.4616 BOYS -0.2218
-4.4616 BRADY -0.2218
-4.4616 BRANCH -0.2218
-4.4616 BRANCHES -0.2218
-4.4616 BRAND -0.2218
-4.4616 BRANDS -0.2218
-4.4616 BRAZIL -0.2218
-4.4616 BRAZILIAN -0.2218
-4.4616 BREAK -0.2218
-4.4616 BREAKING -0.2218
-4.4616 BREAKS -0.2218
-4.4616 BRIAN -0.2218
-4.4616 BRIDGE -0.2218
-4.4616 BRIEF -0.2218
-4.4616 BRIGHT -0.2218
-4.4616 BRING -0.2218
-4.4616 BRINGING -0.2218
-4.4616 BRINGS -0.2218
-4.4616 BRITAIN -0.2218
-4.4616 BRITISH -0.2218
-4.4616 BROAD -0.2218
-4.4616 BROADCAST -0.2218
-4.4616 BROADCASTING -0.2218
-4.4616 BROADER -0.2218
-4.4616 BROKE -0.2218
-4.4616 BROKEN -0.2218
-4.4616 BROKER -0.2218
-4.4616 BROKERAGE -0.2218
-4.4616 BROKERS -0.2218
-4.4616 BROTHER -0.2218
-4.4616 BROTHERS -0.2218
-4.4616 BROUGHT -0.2218
-4.4616 BROWN -0.2218
-4.4616 BRUCE -0.2218
-4.4616 BRUSSELS -0.2218
-4.4616 BUDGET -0.2218
-4.4616 BUDGETS -0.2218
-4.4616 BUILD -0.2218
-4.4616 BUILDING -0.2218
-4.4616 BUILDINGS -0.2218
-4.4616 BUILT -0.2218
-4.4616 BULK -0.2218
-4.4616 BULL -0.2218
-4.4616 BULLISH -0.2218
-4.4616 BUNDESBANK -0.2218
-4.4616 BURDEN -0.2218
-4.4616 BUREAU -0.2218
-4.4616 BUREAUCRACY -0.2218
-4.4616 BURGER -0.2218
-4.4616 BURLINGTON -0.2218
-4.4616 BURNHAM -0.2218
-4.4616 BURNS -0.2218
-4.4616 BUS -0.2218
-4.4616 BUSH -0.2218
-4.4616 BUSINESS -0.2218
-4.4616 BUSINESSES -0.2218
-4.4616 BUSINESSMAN -0.2218
-4.4616 BUSINESSMEN -0.2218
-4.4616 BUSY -0.2218
-4.4616 BUT -0.2218
-4.4616 BUY -0.2218
-4.4616 BUYER -0.2218
-4.4616 BUYERS -0.2218
-4.4616 BUYING -0.2218
-4.4616 BUYOUT -0.2218
-4.4616 BUYS -0.2218
-4.4616 BY -0.2218
-4.4616 CABINET -0.2218
-4.4616 CABLE -0.2218
-4.4616 CALCULATED -0.2218
-4.4616 CALIFORNIA -0.2218
-4.4616 CALL -0.2218
-4.4616 CALLED -0.2218
-4.4616 CALLING -0.2218
-4.4616 CALLS -0.2218
-4.4616 CAMBRIDGE -0.2218
-4.4616 CAME -0.2218
-4.4616 CAMERA -0.2218
-4.4616 CAMP -0.2218
-4.4616 CAMPAIGN -0.2218
-4.4616 CAMPAIGNS -0.2218
-4.4616 CAMPBELL -0.2218
-4.4616 CAMPEAU -0.2218
-4.4616 CAN -0.2218
-4.4616 CANADA -0.2218
-4.4616 CANADIAN -0.2218
-4.4616 CANCELED -0.2218
-4.4616 CANCER -0.2218
-4.4616 CANDIDATE -0.2218
-4.4616 CANDIDATES -0.2218
-4.4616 CANNOT -0.2218
-4.4616 CAP -0.2218
-4.4616 CAPABLE -0.2218
-4.4616 CAPACITY -0.2218
-4.4616 CAPITAL -0.2218
-4.4616 CAPITALIZATION -0.2218
-4.4616 CAPITOL -0.2218
-4.4616 CAR -0.2218
-4.4616 CARBIDE -0.2218
-4.4616 CARD -0.2218
-4.4616 CARDS -0.2218
-4.4616 CARE -0.2218
-4.4616 CAREER -0.2218
-4.4616 CAREFUL -0.2218
-4.4616 CAREFULLY -0.2218
-4.4616 CARGO -0.2218
-4.4616 CARL -0.2218
-4.4616 CAROLINA -0.2218
-4.4616 CARRIED -0.2218
-4.4616 CARRIER -0.2218
-4.4616 CARRIERS -0.2218
-4.4616 CARRIES -0.2218
-4.4616 CARRY -0.2218
-4.4616 CARRYING -0.2218
-4.4616 CARS -0.2218
-4.4616 CARTER -0.2218
-4.4616 CASE -0.2218
-4.4616 CASES -0.2218
-4.4616 CASEY -0.2218
-4.4616 CASH -0.2218
-4.4616 CASINO -0.2218
-4.4616 CAST -0.2218
-4.4616 CASUALTY -0.2218
-4.4616 CATALOG -0.2218
-4.4616 CATCH -0.2218
-4.4616 CATEGORIES -0.2218
-4.4616 CATEGORY -0.2218
-4.4616 CATHOLIC -0.2218
-4.4616 CATTLE -0.2218
-4.4616 CAUGHT -0.2218
-4.4616 CAUSE -0.2218
-4.4616 CAUSED -0.2218
-4.4616 CAUSES -0.2218
-4.4616 CAUSING -0.2218
-4.4616 CAUTION -0.2218
-4.4616 CAUTIONED -0.2218
-4.4616 CAUTIOUS -0.2218
-4.4616 CEASE -0.2218
-4.4616 CEILING -0.2218
-4.4616 CELLS -0.2218
-4.4616 CELLULAR -0.2218
-4.4616 CEMENT -0.2218
-4.4616 CENSUS -0.2218
-4.4616 CENT -0.2218
-4.4616 CENTER -0.2218
-4.4616 CENTERS -0.2218
-4.4616 CENTRAL -0.2218
-4.4616 CENTS -0.2218
-4.4616 CENTURY -0.2218
-4.4616 CERTAIN -0.2218
-4.4616 CERTAINLY -0.2218
-4.4616 CERTIFICATES -0.2218
-4.4616 CHAIN -0.2218
-4.4616 CHAINS -0.2218
-4.4616 CHAIRMAN -0.2218
-4.4616 CHALLENGE -0.2218
-4.4616 CHALLENGED -0.2218
-4.4616 CHALLENGES -0.2218
-4.4616 CHALLENGING -0.2218
-4.4616 CHAMBER -0.2218
-4.4616 CHAMPION -0.2218
-4.4616 CHANCE -0.2218
-4.4616 CHANCELLOR -0.2218
-4.4616 CHANCES -0.2218
-4.4616 CHANGE -0.2218
-4.4616 CHANGED -0.2218
-4.4616 CHANGES -0.2218
-4.4616 CHANGING -0.2218
-4.4616 CHANNEL -0.2218
-4.4616 CHAPTER -0.2218
-4.4616 CHARACTER -0.2218
-4.4616 CHARACTERS -0.2218
-4.4616 CHARGE -0.2218
-4.4616 CHARGED -0.2218
-4.4616 CHARGES -0.2218
-4.4616 CHARGING -0.2218
-4.4616 CHARLES -0.2218
-4.4616 CHARTER -0.2218
-4.4616 CHARTERED -0.2218
-4.4616 CHASE -0.2218
-4.4616 CHEAP -0.2218
-4.4616 CHEAPER -0.2218
-4.4616 CHECK -0.2218
-4.4616 CHECKS -0.2218
-4.4616 CHEMICAL -0.2218
-4.4616 CHEMICALS -0.2218
-4.4616 CHEVRON -0.2218
-4.4616 CHICAGO -0.2218
-4.4616 CHICKEN -0.2218
-4.4616 CHIEF -0.2218
-4.4616 CHILD -0.2218
-4.4616 CHILDREN -0.2218
-4.4616 CHINA -0.2218
-4.4616 CHINESE -0.2218
-4.4616 CHIP -0.2218
-4.4616 CHIPS -0.2218
-4.4616 CHOICE -0.2218
-4.4616 CHOICES -0.2218
-4.4616 CHOLESTEROL -0.2218
-4.4616 CHOOSE -0.2218
-4.4616 CHOSE -0.2218
-4.4616 CHOSEN -0.2218
-4.4616 CHRISTIAN -0.2218
-4.4616 CHRISTMAS -0.2218
-4.4616 CHRISTOPHER -0.2218
-4.4616 CHRYSLER -0.2218
-4.4616 CHURCH -0.2218
-4.4616 CIGARETTE -0.2218
-4.4616 CINCINNATI -0.2218
-4.4616 CIRCLE -0.2218
-4.4616 CIRCUIT -0.2218
-4.4616 CIRCULATION -0.2218
-4.4616 CIRCUMSTANCES -0.2218
-4.4616 CITED -0.2218
-4.4616 CITIBANK -0.2218
-4.4616 CITICORP -0.2218
-4.4616 CITIES -0.2218
-4.4616 CITING -0.2218
-4.4616 CITIZENS -0.2218
-4.4616 CITY -0.2218
-4.4616 CIVIL -0.2218
-4.4616 CIVILIAN -0.2218
-4.4616 CLAIM -0.2218
-4.4616 CLAIMED -0.2218
-4.4616 CLAIMING -0.2218
-4.4616 CLAIMS -0.2218
-4.4616 CLARK -0.2218
-4.4616 CLASS -0.2218
-4.4616 CLASSES -0.2218
-4.4616 CLASSIC -0.2218
-4.4616 CLASSIFIED -0.2218
-4.4616 CLEAN -0.2218
-4.4616 CLEAR -0.2218
-4.4616 CLEARANCE -0.2218
-4.4616 CLEARED -0.2218
-4.4616 CLEARING -0.2218
-4.4616 CLEARLY -0.2218
-4.4616 CLEVELAND -0.2218
-4.4616 CLIENT -0.2218
-4.4616 CLIENTS -0.2218
-4.4616 CLIMATE -0.2218
-4.4616 CLIMB -0.2218
-4.4616 CLIMBED -0.2218
-4.4616 CLINICAL -0.2218
-4.4616 CLOSE -0.2218
-4.4616 CLOSED -0.2218
-4.4616 CLOSELY -0.2218
-4.4616 CLOSER -0.2218
-4.4616 CLOSING -0.2218
-4.4616 CLOSINGS -0.2218
-4.4616 CLOTHES -0.2218
-4.4616 CLOTHING -0.2218
-4.4616 CLUB -0.2218
-4.4616 CLUBS -0.2218
-4.4616 CO -0.2218
-4.4616 COAL -0.2218
-4.4616 COALITION -0.2218
-4.4616 COAST -0.2218
-4.4616 COASTAL -0.2218
-4.4616 COCA -0.2218
-4.4616 COCAINE -0.2218
-4.4616 COCOA -0.2218
-4.4616 CODE -0.2218
-4.4616 COFFEE -0.2218
-4.4616 COHEN -0.2218
-4.4616 COKE -0.2218
-4.4616 COLA -0.2218
-4.4616 COLD -0.2218
-4.4616 COLLAPSE -0.2218
-4.4616 COLLAPSED -0.2218
-4.4616 COLLAR -0.2218
-4.4616 COLLATERAL -0.2218
-4.4616 COLLEAGUES -0.2218
-4.4616 COLLECT -0.2218
-4.4616 COLLECTED -0.2218
-4.4616 COLLECTION -0.2218
-4.4616 COLLEGE -0.2218
-4.4616 COLLEGES -0.2218
-4.4616 COLONEL -0.2218
-4.4616 COLOR -0.2218
-4.4616 COLORADO -0.2218
-4.4616 COLUMBIA -0.2218
-4.4616 COLUMBUS -0.2218
-4.4616 COLUMN -0.2218
-4.4616 COMBAT -0.2218
-4.4616 COMBINATION -0.2218
-4.4616 COMBINED -0.2218
-4.4616 COME -0.2218
-4.4616 COMES -0.2218
-4.4616 COMFORTABLE -0.2218
-4.4616 COMING -0.2218
-4.4616 COMMAND -0.2218
-4.4616 COMMENT -0.2218
-4.4616 COMMENTS -0.2218
-4.4616 COMMERCE -0.2218
-4.4616 COMMERCIAL -0.2218
-4.4616 COMMERCIALS -0.2218
-4.4616 COMMISSION -0.2218
-4.4616 COMMISSIONER -0.2218
-4.4616 COMMISSIONS -0.2218
-4.4616 COMMITMENT -0.2218
-4.4616 COMMITMENTS -0.2218
-4.4616 COMMITTED -0.2218
-4.4616 COMMITTEE -0.2218
-4.4616 COMMITTEES -0.2218
-4.4616 COMMODITIES -0.2218
-4.4616 COMMODITY -0.2218
-4.4616 COMMON -0.2218
-4.4616 COMMONWEALTH -0.2218
-4.4616 COMMUNICATION -0.2218
-4.4616 COMMUNICATIONS -0.2218
-4.4616 COMMUNIST -0.2218
-4.4616 COMMUNITIES -0.2218
-4.4616 COMMUNITY -0.2218
-4.4616 COMPACT -0.2218
-4.4616 COMPANIES -0.2218
-4.4616 COMPANY -0.2218
-4.4616 COMPAQ -0.2218
-4.4616 COMPARABLE -0.2218
-4.4616 COMPARED -0.2218
-4.4616 COMPARISON -0.2218
-4.4616 COMPENSATION -0.2218
-4.4616 COMPETE -0.2218
-4.4616 COMPETING -0.2218
-4.4616 COMPETITION -0.2218
-4.4616 COMPETITIVE -0.2218
-4.4616 COMPETITIVENESS -0.2218
-4.4616 COMPETITOR -0.2218
-4.4616 COMPETITORS -0.2218
-4.4616 COMPLAIN -0.2218
-4.4616 COMPLAINED -0.2218
-4.4616 COMPLAINS -0.2218
-4.4616 COMPLAINT -0.2218
-4.4616 COMPLAINTS -0.2218
-4.4616 COMPLETE -0.2218
-4.4616 COMPLETED -0.2218
-4.4616 COMPLETELY -0.2218
-4.4616 COMPLETION -0.2218
-4.4616 COMPLEX -0.2218
-4.4616 COMPLIANCE -0.2218
-4.4616 COMPLICATED -0.2218
-4.4616 COMPLY -0.2218
-4.4616 COMPONENTS -0.2218
-4.4616 COMPOSITE -0.2218
-4.4616 COMPREHENSIVE -0.2218
-4.4616 COMPROMISE -0.2218
-4.4616 COMPUTER -0.2218
-4.4616 COMPUTERIZED -0.2218
-4.4616 COMPUTERS -0.2218
-4.4616 CONCEDE -0.2218
-4.4616 CONCEDED -0.2218
-4.4616 CONCEDES -0.2218
-4.4616 CONCENTRATE -0.2218
-4.4616 CONCEPT -0.2218
-4.4616 CONCERN -0.2218
-4.4616 CONCERNED -0.2218
-4.4616 CONCERNING -0.2218
-4.4616 CONCERNS -0.2218
-4.4616 CONCESSIONS -0.2218
-4.4616 CONCLUDE -0.2218
-4.4616 CONCLUDED -0.2218
-4.4616 CONCLUSION -0.2218
-4.4616 CONCRETE -0.2218
-4.4616 CONDITION -0.2218
-4.4616 CONDITIONS -0.2218
-4.4616 CONDUCT -0.2218
-4.4616 CONDUCTED -0.2218
-4.4616 CONDUCTING -0.2218
-4.4616 CONFERENCE -0.2218
-4.4616 CONFIDENCE -0.2218
-4.4616 CONFIDENT -0.2218
-4.4616 CONFIDENTIAL -0.2218
-4.4616 CONFIRM -0.2218
-4.4616 CONFIRMATION -0.2218
-4.4616 CONFIRMED -0.2218
-4.4616 CONFLICT -0.2218
-4.4616 CONFLICTS -0.2218
-4.4616 CONFUSION -0.2218
-4.4616 CONGRESS -0.2218
-4.4616 CONGRESSIONAL -0.2218
-4.4616 CONISTON -0.2218
-4.4616 CONNECTICUT -0.2218
-4.4616 CONNECTION -0.2218
-4.4616 CONSECUTIVE -0.2218
-4.4616 CONSENSUS -0.2218
-4.4616 CONSENT -0.2218
-4.4616 CONSEQUENCES -0.2218
-4.4616 CONSERVATIVE -0.2218
-4.4616 CONSERVATIVES -0.2218
-4.4616 CONSIDER -0.2218
-4.4616 CONSIDERABLE -0.2218
-4.4616 CONSIDERABLY -0.2218
-4.4616 CONSIDERATION -0.2218
-4.4616 CONSIDERED -0.2218
-4.4616 CONSIDERING -0.2218
-4.4616 CONSIDERS -0.2218
-4.4616 CONSISTENT -0.2218
-4.4616 CONSISTENTLY -0.2218
-4.4616 CONSISTS -0.2218
-4.4616 CONSOLIDATED -0.2218
-4.4616 CONSOLIDATION -0.2218
-4.4616 CONSORTIUM -0.2218
-4.4616 CONSPIRACY -0.2218
-4.4616 CONSTANT -0.2218
-4.4616 CONSTITUTION -0.2218
-4.4616 CONSTITUTIONAL -0.2218
-4.4616 CONSTRUCTION -0.2218
-4.4616 CONSULTANT -0.2218
-4.4616 CONSULTANTS -0.2218
-4.4616 CONSULTING -0.2218
-4.4616 CONSUMER -0.2218
-4.4616 CONSUMERS -0.2218
-4.4616 CONSUMPTION -0.2218
-4.4616 CONTACT -0.2218
-4.4616 CONTACTS -0.2218
-4.4616 CONTAIN -0.2218
-4.4616 CONTAINED -0.2218
-4.4616 CONTAINS -0.2218
-4.4616 CONTEND -0.2218
-4.4616 CONTENDED -0.2218
-4.4616 CONTENDS -0.2218
-4.4616 CONTENT -0.2218
-4.4616 CONTEST -0.2218
-4.4616 CONTINENTAL -0.2218
-4.4616 CONTINGENT -0.2218
-4.4616 CONTINUE -0.2218
-4.4616 CONTINUED -0.2218
-4.4616 CONTINUES -0.2218
-4.4616 CONTINUING -0.2218
-4.4616 CONTRA -0.2218
-4.4616 CONTRACT -0.2218
-4.4616 CONTRACTOR -0.2218
-4.4616 CONTRACTORS -0.2218
-4.4616 CONTRACTS -0.2218
-4.4616 CONTRARY -0.2218
-4.4616 CONTRAS -0.2218
-4.4616 CONTRAST -0.2218
-4.4616 CONTRIBUTE -0.2218
-4.4616 CONTRIBUTED -0.2218
-4.4616 CONTRIBUTION -0.2218
-4.4616 CONTRIBUTIONS -0.2218
-4.4616 CONTROL -0.2218
-4.4616 CONTROLLED -0.2218
-4.4616 CONTROLLING -0.2218
-4.4616 CONTROLS -0.2218
-4.4616 CONTROVERSIAL -0.2218
-4.4616 CONTROVERSY -0.2218
-4.4616 CONVENTION -0.2218
-4.4616 CONVENTIONAL -0.2218
-4.4616 CONVERSION -0.2218
-4.4616 CONVERT -0.2218
-4.4616 CONVERTED -0.2218
-4.4616 CONVERTIBLE -0.2218
-4.4616 CONVICTED -0.2218
-4.4616 CONVICTION -0.2218
-4.4616 CONVINCE -0.2218
-4.4616 CONVINCED -0.2218
-4.4616 COOL -0.2218
-4.4616 COOPER -0.2218
-4.4616 COOPERATE -0.2218
-4.4616 COOPERATION -0.2218
-4.4616 COPIES -0.2218
-4.4616 COPPER -0.2218
-4.4616 COPY -0.2218
-4.4616 CORE -0.2218
-4.4616 CORN -0.2218
-4.4616 CORNER -0.2218
-4.4616 CORPORATE -0.2218
-4.4616 CORPORATION -0.2218
-4.4616 CORPORATIONS -0.2218
-4.4616 CORRECT -0.2218
-4.4616 CORRECTION -0.2218
-4.4616 CORRUPTION -0.2218
-4.4616 COST -0.2218
-4.4616 COSTA -0.2218
-4.4616 COSTLY -0.2218
-4.4616 COSTS -0.2218
-4.4616 COTTON -0.2218
-4.4616 COULD -0.2218
-4.4616 COUNCIL -0.2218
-4.4616 COUNSEL -0.2218
-4.4616 COUNT -0.2218
-4.4616 COUNTER -0.2218
-4.4616 COUNTING -0.2218
-4.4616 COUNTRIES -0.2218
-4.4616 COUNTRY -0.2218
-4.4616 COUNTS -0.2218
-4.4616 COUNTY -0.2218
-4.4616 COUP -0.2218
-4.4616 COUPLE -0.2218
-4.4616 COUPON -0.2218
-4.4616 COURSE -0.2218
-4.4616 COURT -0.2218
-4.4616 COURTS -0.2218
-4.4616 COVER -0.2218
-4.4616 COVERAGE -0.2218
-4.4616 COVERED -0.2218
-4.4616 COVERING -0.2218
-4.4616 COVERS -0.2218
-4.4616 CRACK -0.2218
-4.4616 CRAFT -0.2218
-4.4616 CRASH -0.2218
-4.4616 CRAY -0.2218
-4.4616 CRAZY -0.2218
-4.4616 CREATE -0.2218
-4.4616 CREATED -0.2218
-4.4616 CREATING -0.2218
-4.4616 CREATION -0.2218
-4.4616 CREATIVE -0.2218
-4.4616 CREDIBILITY -0.2218
-4.4616 CREDIT -0.2218
-4.4616 CREDITOR -0.2218
-4.4616 CREDITORS -0.2218
-4.4616 CREDITS -0.2218
-4.4616 CREW -0.2218
-4.4616 CRIME -0.2218
-4.4616 CRIMES -0.2218
-4.4616 CRIMINAL -0.2218
-4.4616 CRISIS -0.2218
-4.4616 CRITICAL -0.2218
-4.4616 CRITICISM -0.2218
-4.4616 CRITICIZED -0.2218
-4.4616 CRITICS -0.2218
-4.4616 CROP -0.2218
-4.4616 CROPS -0.2218
-4.4616 CROSS -0.2218
-4.4616 CROWD -0.2218
-4.4616 CRUCIAL -0.2218
-4.4616 CRUDE -0.2218
-4.4616 CRUISE -0.2218
-4.4616 CUBAN -0.2218
-4.4616 CUBIC -0.2218
-4.4616 CULTURAL -0.2218
-4.4616 CULTURE -0.2218
-4.4616 CUMULATIVE -0.2218
-4.4616 CURB -0.2218
-4.4616 CURRENCIES -0.2218
-4.4616 CURRENCY -0.2218
-4.4616 CURRENT -0.2218
-4.4616 CURRENTLY -0.2218
-4.4616 CUSTOMER -0.2218
-4.4616 CUSTOMERS -0.2218
-4.4616 CUSTOMS -0.2218
-4.4616 CUT -0.2218
-4.4616 CUTBACKS -0.2218
-4.4616 CUTS -0.2218
-4.4616 CUTTING -0.2218
-4.4616 CYCLE -0.2218
-4.4616 DAILY -0.2218
-4.4616 DAIMLER -0.2218
-4.4616 DALLAS -0.2218
-4.4616 DAMAGE -0.2218
-4.4616 DAMAGED -0.2218
-4.4616 DAMAGES -0.2218
-4.4616 DAN -0.2218
-4.4616 DANCE -0.2218
-4.4616 DANGER -0.2218
-4.4616 DANGEROUS -0.2218
-4.4616 DANIEL -0.2218
-4.4616 DARK -0.2218
-4.4616 DATA -0.2218
-4.4616 DATE -0.2218
-4.4616 DATES -0.2218
-4.4616 DAUGHTER -0.2218
-4.4616 DAVID -0.2218
-4.4616 DAVIS -0.2218
-4.4616 DAY -0.2218
-4.4616 DAYS -0.2218
-4.4616 DAYTON -0.2218
-4.4616 DE -0.2218
-4.4616 DEAD -0.2218
-4.4616 DEADLINE -0.2218
-4.4616 DEAL -0.2218
-4.4616 DEALER -0.2218
-4.4616 DEALERS -0.2218
-4.4616 DEALING -0.2218
-4.4616 DEALINGS -0.2218
-4.4616 DEALS -0.2218
-4.4616 DEAN -0.2218
-4.4616 DEATH -0.2218
-4.4616 DEATHS -0.2218
-4.4616 DEBATE -0.2218
-4.4616 DEBENTURES -0.2218
-4.4616 DEBT -0.2218
-4.4616 DEBTOR -0.2218
-4.4616 DEBTS -0.2218
-4.4616 DECADE -0.2218
-4.4616 DECADES -0.2218
-4.4616 DECEMBER -0.2218
-4.4616 DECIDE -0.2218
-4.4616 DECIDED -0.2218
-4.4616 DECIDING -0.2218
-4.4616 DECISION -0.2218
-4.4616 DECISIONS -0.2218
-4.4616 DECLARED -0.2218
-4.4616 DECLINE -0.2218
-4.4616 DECLINED -0.2218
-4.4616 DECLINES -0.2218
-4.4616 DECLINING -0.2218
-4.4616 DECREASE -0.2218
-4.4616 DEDUCTIONS -0.2218
-4.4616 DEEP -0.2218
-4.4616 DEEPLY -0.2218
-4.4616 DEFAULT -0.2218
-4.4616 DEFEAT -0.2218
-4.4616 DEFEND -0.2218
-4.4616 DEFENDANTS -0.2218
-4.4616 DEFENSE -0.2218
-4.4616 DEFENSES -0.2218
-4.4616 DEFENSIVE -0.2218
-4.4616 DEFERRED -0.2218
-4.4616 DEFICIENCY -0.2218
-4.4616 DEFICIT -0.2218
-4.4616 DEFICITS -0.2218
-4.4616 DEFINED -0.2218
-4.4616 DEFINITION -0.2218
-4.4616 DEFINITIVE -0.2218
-4.4616 DEGREE -0.2218
-4.4616 DEGREES -0.2218
-4.4616 DELAWARE -0.2218
-4.4616 DELAY -0.2218
-4.4616 DELAYED -0.2218
-4.4616 DELAYS -0.2218
-4.4616 DELEGATES -0.2218
-4.4616 DELIVER -0.2218
-4.4616 DELIVERED -0.2218
-4.4616 DELIVERIES -0.2218
-4.4616 DELIVERY -0.2218
-4.4616 DELTA -0.2218
-4.4616 DEMAND -0.2218
-4.4616 DEMANDED -0.2218
-4.4616 DEMANDING -0.2218
-4.4616 DEMANDS -0.2218
-4.4616 DEMOCRACY -0.2218
-4.4616 DEMOCRAT -0.2218
-4.4616 DEMOCRATIC -0.2218
-4.4616 DEMOCRATS -0.2218
-4.4616 DEMONSTRATE -0.2218
-4.4616 DEMONSTRATED -0.2218
-4.4616 DENIED -0.2218
-4.4616 DENIES -0.2218
-4.4616 DENNIS -0.2218
-4.4616 DENOMINATED -0.2218
-4.4616 DENVER -0.2218
-4.4616 DENY -0.2218
-4.4616 DENYING -0.2218
-4.4616 DEPARTMENT -0.2218
-4.4616 DEPARTMENTS -0.2218
-4.4616 DEPARTURE -0.2218
-4.4616 DEPEND -0.2218
-4.4616 DEPENDENT -0.2218
-4.4616 DEPENDING -0.2218
-4.4616 DEPENDS -0.2218
-4.4616 DEPOSIT -0.2218
-4.4616 DEPOSITS -0.2218
-4.4616 DEPRESSED -0.2218
-4.4616 DEPRESSION -0.2218
-4.4616 DEPUTY -0.2218
-4.4616 DEREGULATION -0.2218
-4.4616 DES -0.2218
-4.4616 DESCRIBE -0.2218
-4.4616 DESCRIBED -0.2218
-4.4616 DESCRIBES -0.2218
-4.4616 DESIGN -0.2218
-4.4616 DESIGNED -0.2218
-4.4616 DESIGNER -0.2218
-4.4616 DESIGNS -0.2218
-4.4616 DESIRE -0.2218
-4.4616 DESK -0.2218
-4.4616 DESPITE -0.2218
-4.4616 DESTROYED -0.2218
-4.4616 DETAILED -0.2218
-4.4616 DETAILS -0.2218
-4.4616 DETERMINE -0.2218
-4.4616 DETERMINED -0.2218
-4.4616 DETROIT -0.2218
-4.4616 DEUTSCHE -0.2218
-4.4616 DEVELOP -0.2218
-4.4616 DEVELOPED -0.2218
-4.4616 DEVELOPER -0.2218
-4.4616 DEVELOPERS -0.2218
-4.4616 DEVELOPING -0.2218
-4.4616 DEVELOPMENT -0.2218
-4.4616 DEVELOPMENTS -0.2218
-4.4616 DEVICE -0.2218
-4.4616 DEVICES -0.2218
-4.4616 DIAMOND -0.2218
-4.4616 DID -0.2218
-4.4616 DIE -0.2218
-4.4616 DIED -0.2218
-4.4616 DIEGO -0.2218
-4.4616 DIFFERENCE -0.2218
-4.4616 DIFFERENCES -0.2218
-4.4616 DIFFERENT -0.2218
-4.4616 DIFFICULT -0.2218
-4.4616 DIFFICULTIES -0.2218
-4.4616 DIFFICULTY -0.2218
-4.4616 DIGITAL -0.2218
-4.4616 DILUTED -0.2218
-4.4616 DINNER -0.2218
-4.4616 DIPLOMATIC -0.2218
-4.4616 DIPLOMATS -0.2218
-4.4616 DIRECT -0.2218
-4.4616 DIRECTED -0.2218
-4.4616 DIRECTION -0.2218
-4.4616 DIRECTLY -0.2218
-4.4616 DIRECTOR -0.2218
-4.4616 DIRECTORS -0.2218
-4.4616 DISAPPOINTED -0.2218
-4.4616 DISAPPOINTING -0.2218
-4.4616 DISASTER -0.2218
-4.4616 DISCLOSE -0.2218
-4.4616 DISCLOSED -0.2218
-4.4616 DISCLOSURE -0.2218
-4.4616 DISCONTINUED -0.2218
-4.4616 DISCOUNT -0.2218
-4.4616 DISCOUNTS -0.2218
-4.4616 DISCOURAGE -0.2218
-4.4616 DISCOVERED -0.2218
-4.4616 DISCOVERY -0.2218
-4.4616 DISCRIMINATION -0.2218
-4.4616 DISCUSS -0.2218
-4.4616 DISCUSSED -0.2218
-4.4616 DISCUSSING -0.2218
-4.4616 DISCUSSION -0.2218
-4.4616 DISCUSSIONS -0.2218
-4.4616 DISEASE -0.2218
-4.4616 DISK -0.2218
-4.4616 DISMISSED -0.2218
-4.4616 DISNEY -0.2218
-4.4616 DISPLAY -0.2218
-4.4616 DISPOSAL -0.2218
-4.4616 DISPUTE -0.2218
-4.4616 DISPUTED -0.2218
-4.4616 DISPUTES -0.2218
-4.4616 DISTANCE -0.2218
-4.4616 DISTILLERS -0.2218
-4.4616 DISTRIBUTE -0.2218
-4.4616 DISTRIBUTED -0.2218
-4.4616 DISTRIBUTION -0.2218
-4.4616 DISTRIBUTOR -0.2218
-4.4616 DISTRICT -0.2218
-4.4616 DIVERSIFIED -0.2218
-4.4616 DIVIDED -0.2218
-4.4616 DIVIDEND -0.2218
-4.4616 DIVIDENDS -0.2218
-4.4616 DIVISION -0.2218
-4.4616 DIVISIONS -0.2218
-4.4616 DO -0.2218
-4.4616 DOCTOR -0.2218
-4.4616 DOCTORS -0.2218
-4.4616 DOCTRINE -0.2218
-4.4616 DOCUMENT -0.2218
-4.4616 DOCUMENTS -0.2218
-4.4616 DOES -0.2218
-4.4616 DOG -0.2218
-4.4616 DOING -0.2218
-4.4616 DOLE -0.2218
-4.4616 DOLLAR -0.2218
-4.4616 DOLLARS -0.2218
-4.4616 DOME -0.2218
-4.4616 DOMESTIC -0.2218
-4.4616 DOMINANT -0.2218
-4.4616 DOMINATED -0.2218
-4.4616 DOMINION -0.2218
-4.4616 DON -0.2218
-4.4616 DONALD -0.2218
-4.4616 DONALDSON -0.2218
-4.4616 DONE -0.2218
-4.4616 DOOR -0.2218
-4.4616 DOORS -0.2218
-4.4616 DOUBLE -0.2218
-4.4616 DOUBLED -0.2218
-4.4616 DOUBT -0.2218
-4.4616 DOUBTS -0.2218
-4.4616 DOUGLAS -0.2218
-4.4616 DOW -0.2218
-4.4616 DOWN -0.2218
-4.4616 DOWNS -0.2218
-4.4616 DOWNTOWN -0.2218
-4.4616 DOWNTURN -0.2218
-4.4616 DOWNWARD -0.2218
-4.4616 DOZEN -0.2218
-4.4616 DOZENS -0.2218
-4.4616 DRAFT -0.2218
-4.4616 DRAMATIC -0.2218
-4.4616 DRAW -0.2218
-4.4616 DRAWING -0.2218
-4.4616 DRAWN -0.2218
-4.4616 DREAM -0.2218
-4.4616 DREW -0.2218
-4.4616 DREXEL -0.2218
-4.4616 DRILLING -0.2218
-4.4616 DRINK -0.2218
-4.4616 DRIVE -0.2218
-4.4616 DRIVEN -0.2218
-4.4616 DRIVERS -0.2218
-4.4616 DRIVES -0.2218
-4.4616 DRIVING -0.2218
-4.4616 DROP -0.2218
-4.4616 DROPPED -0.2218
-4.4616 DROPPING -0.2218
-4.4616 DROUGHT -0.2218
-4.4616 DROVE -0.2218
-4.4616 DRUG -0.2218
-4.4616 DRUGS -0.2218
-4.4616 DRY -0.2218
-4.4616 DU -0.2218
-4.4616 DUE -0.2218
-4.4616 DUKAKIS -0.2218
-4.4616 DUMPING -0.2218
-4.4616 DURABLE -0.2218
-4.4616 DURING -0.2218
-4.4616 DUTCH -0.2218
-4.4616 DUTIES -0.2218
-4.4616 DUTY -0.2218
-4.4616 DYNAMICS -0.2218
-4.4616 EACH -0.2218
-4.4616 EAGER -0.2218
-4.4616 EARLIER -0.2218
-4.4616 EARLY -0.2218
-4.4616 EARN -0.2218
-4.4616 EARNED -0.2218
-4.4616 EARNING -0.2218
-4.4616 EARNINGS -0.2218
-4.4616 EARTH -0.2218
-4.4616 EASE -0.2218
-4.4616 EASED -0.2218
-4.4616 EASIER -0.2218
-4.4616 EASILY -0.2218
-4.4616 EASING -0.2218
-4.4616 EAST -0.2218
-4.4616 EASTERN -0.2218
-4.4616 EASY -0.2218
-4.4616 EAT -0.2218
-4.4616 ECONOMIC -0.2218
-4.4616 ECONOMICS -0.2218
-4.4616 ECONOMIES -0.2218
-4.4616 ECONOMIST -0.2218
-4.4616 ECONOMISTS -0.2218
-4.4616 ECONOMY -0.2218
-4.4616 EDDIE -0.2218
-4.4616 EDELMAN -0.2218
-4.4616 EDGE -0.2218
-4.4616 EDGED -0.2218
-4.4616 EDISON -0.2218
-4.4616 EDITION -0.2218
-4.4616 EDITOR -0.2218
-4.4616 EDITORIAL -0.2218
-4.4616 EDUCATION -0.2218
-4.4616 EDUCATIONAL -0.2218
-4.4616 EDWARD -0.2218
-4.4616 EDWIN -0.2218
-4.4616 EFFECT -0.2218
-4.4616 EFFECTIVE -0.2218
-4.4616 EFFECTIVELY -0.2218
-4.4616 EFFECTS -0.2218
-4.4616 EFFICIENCY -0.2218
-4.4616 EFFICIENT -0.2218
-4.4616 EFFORT -0.2218
-4.4616 EFFORTS -0.2218
-4.4616 EGYPT -0.2218
-4.4616 EIGHT -0.2218
-4.4616 EIGHTEEN -0.2218
-4.4616 EIGHTEENTH -0.2218
-4.4616 EIGHTH -0.2218
-4.4616 EIGHTHS -0.2218
-4.4616 EIGHTIES -0.2218
-4.4616 EIGHTY -0.2218
-4.4616 EITHER -0.2218
-4.4616 EL -0.2218
-4.4616 ELABORATE -0.2218
-4.4616 ELDERLY -0.2218
-4.4616 ELDERS -0.2218
-4.4616 ELECT -0.2218
-4.4616 ELECTED -0.2218
-4.4616 ELECTION -0.2218
-4.4616 ELECTIONS -0.2218
-4.4616 ELECTRIC -0.2218
-4.4616 ELECTRICAL -0.2218
-4.4616 ELECTRICITY -0.2218
-4.4616 ELECTRONIC -0.2218
-4.4616 ELECTRONICS -0.2218
-4.4616 ELEMENTS -0.2218
-4.4616 ELEVEN -0.2218
-4.4616 ELEVENTH -0.2218
-4.4616 ELIGIBLE -0.2218
-4.4616 ELIMINATE -0.2218
-4.4616 ELIMINATED -0.2218
-4.4616 ELIMINATING -0.2218
-4.4616 ELSE -0.2218
-4.4616 ELSEWHERE -0.2218
-4.4616 EMBASSY -0.2218
-4.4616 EMERGE -0.2218
-4.4616 EMERGED -0.2218
-4.4616 EMERGENCY -0.2218
-4.4616 EMERGING -0.2218
-4.4616 EMOTIONAL -0.2218
-4.4616 EMPHASIS -0.2218
-4.4616 EMPHASIZED -0.2218
-4.4616 EMPIRE -0.2218
-4.4616 EMPLOYED -0.2218
-4.4616 EMPLOYEE -0.2218
-4.4616 EMPLOYEES -0.2218
-4.4616 EMPLOYER -0.2218
-4.4616 EMPLOYERS -0.2218
-4.4616 EMPLOYMENT -0.2218
-4.4616 EMPLOYS -0.2218
-4.4616 ENABLE -0.2218
-4.4616 ENACTED -0.2218
-4.4616 ENCOURAGE -0.2218
-4.4616 ENCOURAGED -0.2218
-4.4616 ENCOURAGING -0.2218
-4.4616 END -0.2218
-4.4616 ENDED -0.2218
-4.4616 ENDING -0.2218
-4.4616 ENDORSED -0.2218
-4.4616 ENDS -0.2218
-4.4616 ENERGY -0.2218
-4.4616 ENFORCEMENT -0.2218
-4.4616 ENGAGED -0.2218
-4.4616 ENGINE -0.2218
-4.4616 ENGINEER -0.2218
-4.4616 ENGINEERED -0.2218
-4.4616 ENGINEERING -0.2218
-4.4616 ENGINEERS -0.2218
-4.4616 ENGINES -0.2218
-4.4616 ENGLAND -0.2218
-4.4616 ENGLISH -0.2218
-4.4616 ENHANCE -0.2218
-4.4616 ENJOY -0.2218
-4.4616 ENORMOUS -0.2218
-4.4616 ENOUGH -0.2218
-4.4616 ENSURE -0.2218
-4.4616 ENTER -0.2218
-4.4616 ENTERED -0.2218
-4.4616 ENTERING -0.2218
-4.4616 ENTERPRISE -0.2218
-4.4616 ENTERPRISES -0.2218
-4.4616 ENTERTAINMENT -0.2218
-4.4616 ENTHUSIASM -0.2218
-4.4616 ENTIRE -0.2218
-4.4616 ENTIRELY -0.2218
-4.4616 ENTITLED -0.2218
-4.4616 ENTREPRENEURS -0.2218
-4.4616 ENTRY -0.2218
-4.4616 ENVIRONMENT -0.2218
-4.4616 ENVIRONMENTAL -0.2218
-4.4616 EQUAL -0.2218
-4.4616 EQUALLY -0.2218
-4.4616 EQUIPMENT -0.2218
-4.4616 EQUIPPED -0.2218
-4.4616 EQUITIES -0.2218
-4.4616 EQUITY -0.2218
-4.4616 EQUIVALENT -0.2218
-4.4616 ERA -0.2218
-4.4616 ERROR -0.2218
-4.4616 ESCAPE -0.2218
-4.4616 ESPECIALLY -0.2218
-4.4616 ESSENTIAL -0.2218
-4.4616 ESSENTIALLY -0.2218
-4.4616 ESTABLISH -0.2218
-4.4616 ESTABLISHED -0.2218
-4.4616 ESTABLISHMENT -0.2218
-4.4616 ESTATE -0.2218
-4.4616 ESTIMATE -0.2218
-4.4616 ESTIMATED -0.2218
-4.4616 ESTIMATES -0.2218
-4.4616 ETHICS -0.2218
-4.4616 ETHNIC -0.2218
-4.4616 EUROBONDS -0.2218
-4.4616 EURODOLLAR -0.2218
-4.4616 EUROPE -0.2218
-4.4616 EUROPEAN -0.2218
-4.4616 EUROPEANS -0.2218
-4.4616 EVALUATE -0.2218
-4.4616 EVANS -0.2218
-4.4616 EVEN -0.2218
-4.4616 EVENING -0.2218
-4.4616 EVENT -0.2218
-4.4616 EVENTS -0.2218
-4.4616 EVENTUALLY -0.2218
-4.4616 EVER -0.2218
-4.4616 EVERY -0.2218
-4.4616 EVERYBODY -0.2218
-4.4616 EVERYONE -0.2218
-4.4616 EVERYTHING -0.2218
-4.4616 EVIDENCE -0.2218
-4.4616 EVIDENT -0.2218
-4.4616 EX -0.2218
-4.4616 EXACTLY -0.2218
-4.4616 EXAMPLE -0.2218
-4.4616 EXCEED -0.2218
-4.4616 EXCEEDED -0.2218
-4.4616 EXCELLENT -0.2218
-4.4616 EXCEPT -0.2218
-4.4616 EXCEPTION -0.2218
-4.4616 EXCESS -0.2218
-4.4616 EXCESSIVE -0.2218
-4.4616 EXCHANGE -0.2218
-4.4616 EXCHANGES -0.2218
-4.4616 EXCLUDING -0.2218
-4.4616 EXCLUSIVE -0.2218
-4.4616 EXECUTIVE -0.2218
-4.4616 EXECUTIVES -0.2218
-4.4616 EXEMPT -0.2218
-4.4616 EXERCISE -0.2218
-4.4616 EXIST -0.2218
-4.4616 EXISTENCE -0.2218
-4.4616 EXISTING -0.2218
-4.4616 EXPAND -0.2218
-4.4616 EXPANDED -0.2218
-4.4616 EXPANDING -0.2218
-4.4616 EXPANSION -0.2218
-4.4616 EXPECT -0.2218
-4.4616 EXPECTATIONS -0.2218
-4.4616 EXPECTED -0.2218
-4.4616 EXPECTING -0.2218
-4.4616 EXPECTS -0.2218
-4.4616 EXPENDITURES -0.2218
-4.4616 EXPENSE -0.2218
-4.4616 EXPENSES -0.2218
-4.4616 EXPENSIVE -0.2218
-4.4616 EXPERIENCE -0.2218
-4.4616 EXPERIENCED -0.2218
-4.4616 EXPERIMENT -0.2218
-4.4616 EXPERT -0.2218
-4.4616 EXPERTISE -0.2218
-4.4616 EXPERTS -0.2218
-4.4616 EXPIRATION -0.2218
-4.4616 EXPIRE -0.2218
-4.4616 EXPIRED -0.2218
-4.4616 EXPIRES -0.2218
-4.4616 EXPLAIN -0.2218
-4.4616 EXPLAINED -0.2218
-4.4616 EXPLAINS -0.2218
-4.4616 EXPLANATION -0.2218
-4.4616 EXPLORATION -0.2218
-4.4616 EXPLORE -0.2218
-4.4616 EXPLOSION -0.2218
-4.4616 EXPORT -0.2218
-4.4616 EXPORTERS -0.2218
-4.4616 EXPORTING -0.2218
-4.4616 EXPORTS -0.2218
-4.4616 EXPOSED -0.2218
-4.4616 EXPOSURE -0.2218
-4.4616 EXPRESS -0.2218
-4.4616 EXPRESSED -0.2218
-4.4616 EXTEND -0.2218
-4.4616 EXTENDED -0.2218
-4.4616 EXTENDING -0.2218
-4.4616 EXTENSION -0.2218
-4.4616 EXTENSIVE -0.2218
-4.4616 EXTENT -0.2218
-4.4616 EXTERNAL -0.2218
-4.4616 EXTRA -0.2218
-4.4616 EXTRAORDINARY -0.2218
-4.4616 EXTREME -0.2218
-4.4616 EXTREMELY -0.2218
-4.4616 EXXON -0.2218
-4.4616 EYE -0.2218
-4.4616 EYES -0.2218
-4.4616 FACE -0.2218
-4.4616 FACED -0.2218
-4.4616 FACES -0.2218
-4.4616 FACILITIES -0.2218
-4.4616 FACILITY -0.2218
-4.4616 FACING -0.2218
-4.4616 FACT -0.2218
-4.4616 FACTOR -0.2218
-4.4616 FACTORIES -0.2218
-4.4616 FACTORS -0.2218
-4.4616 FACTORY -0.2218
-4.4616 FACTS -0.2218
-4.4616 FAIL -0.2218
-4.4616 FAILED -0.2218
-4.4616 FAILING -0.2218
-4.4616 FAILS -0.2218
-4.4616 FAILURE -0.2218
-4.4616 FAILURES -0.2218
-4.4616 FAIR -0.2218
-4.4616 FAIRLY -0.2218
-4.4616 FAITH -0.2218
-4.4616 FALL -0.2218
-4.4616 FALLEN -0.2218
-4.4616 FALLING -0.2218
-4.4616 FALLS -0.2218
-4.4616 FALSE -0.2218
-4.4616 FAMILIAR -0.2218
-4.4616 FAMILIES -0.2218
-4.4616 FAMILY -0.2218
-4.4616 FAMOUS -0.2218
-4.4616 FANNIE -0.2218
-4.4616 FANS -0.2218
-4.4616 FAR -0.2218
-4.4616 FARE -0.2218
-4.4616 FARES -0.2218
-4.4616 FARM -0.2218
-4.4616 FARMER -0.2218
-4.4616 FARMERS -0.2218
-4.4616 FARMS -0.2218
-4.4616 FASHION -0.2218
-4.4616 FAST -0.2218
-4.4616 FASTER -0.2218
-4.4616 FASTEST -0.2218
-4.4616 FAT -0.2218
-4.4616 FATE -0.2218
-4.4616 FATHER -0.2218
-4.4616 FAVOR -0.2218
-4.4616 FAVORABLE -0.2218
-4.4616 FAVORED -0.2218
-4.4616 FAVORITE -0.2218
-4.4616 FAVORS -0.2218
-4.4616 FE -0.2218
-4.4616 FEAR -0.2218
-4.4616 FEARED -0.2218
-4.4616 FEARS -0.2218
-4.4616 FEATURE -0.2218
-4.4616 FEATURES -0.2218
-4.4616 FEBRUARY -0.2218
-4.4616 FED -0.2218
-4.4616 FEDERAL -0.2218
-4.4616 FEDERALLY -0.2218
-4.4616 FEDERATED -0.2218
-4.4616 FEDERATION -0.2218
-4.4616 FEE -0.2218
-4.4616 FEED -0.2218
-4.4616 FEEL -0.2218
-4.4616 FEELING -0.2218
-4.4616 FEELS -0.2218
-4.4616 FEES -0.2218
-4.4616 FEET -0.2218
-4.4616 FELL -0.2218
-4.4616 FELLOW -0.2218
-4.4616 FELT -0.2218
-4.4616 FEMALE -0.2218
-4.4616 FEW -0.2218
-4.4616 FEWER -0.2218
-4.4616 FIBER -0.2218
-4.4616 FIDELITY -0.2218
-4.4616 FIELD -0.2218
-4.4616 FIELDS -0.2218
-4.4616 FIFTEEN -0.2218
-4.4616 FIFTEENTH -0.2218
-4.4616 FIFTH -0.2218
-4.4616 FIFTIES -0.2218
-4.4616 FIFTY -0.2218
-4.4616 FIGHT -0.2218
-4.4616 FIGHTER -0.2218
-4.4616 FIGHTING -0.2218
-4.4616 FIGURE -0.2218
-4.4616 FIGURES -0.2218
-4.4616 FILE -0.2218
-4.4616 FILED -0.2218
-4.4616 FILING -0.2218
-4.4616 FILINGS -0.2218
-4.4616 FILL -0.2218
-4.4616 FILLED -0.2218
-4.4616 FILLING -0.2218
-4.4616 FILM -0.2218
-4.4616 FILMS -0.2218
-4.4616 FINAL -0.2218
-4.4616 FINALLY -0.2218
-4.4616 FINANCE -0.2218
-4.4616 FINANCED -0.2218
-4.4616 FINANCIAL -0.2218
-4.4616 FINANCIALLY -0.2218
-4.4616 FINANCIER -0.2218
-4.4616 FINANCING -0.2218
-4.4616 FIND -0.2218
-4.4616 FINDING -0.2218
-4.4616 FINDINGS -0.2218
-4.4616 FINDS -0.2218
-4.4616 FINE -0.2218
-4.4616 FINED -0.2218
-4.4616 FINES -0.2218
-4.4616 FINISH -0.2218
-4.4616 FINISHED -0.2218
-4.4616 FIRE -0.2218
-4.4616 FIRED -0.2218
-4.4616 FIRM -0.2218
-4.4616 FIRMS -0.2218
-4.4616 FIRST -0.2218
-4.4616 FISCAL -0.2218
-4.4616 FISH -0.2218
-4.4616 FIT -0.2218
-4.4616 FIVE -0.2218
-4.4616 FIX -0.2218
-4.4616 FIXED -0.2218
-4.4616 FLAG -0.2218
-4.4616 FLAT -0.2218
-4.4616 FLEET -0.2218
-4.4616 FLEXIBILITY -0.2218
-4.4616 FLEXIBLE -0.2218
-4.4616 FLIGHT -0.2218
-4.4616 FLIGHTS -0.2218
-4.4616 FLOATING -0.2218
-4.4616 FLOOR -0.2218
-4.4616 FLORIDA -0.2218
-4.4616 FLOW -0.2218
-4.4616 FLOWN -0.2218
-4.4616 FLY -0.2218
-4.4616 FLYING -0.2218
-4.4616 FOCUS -0.2218
-4.4616 FOCUSED -0.2218
-4.4616 FOCUSING -0.2218
-4.4616 FOLLOW -0.2218
-4.4616 FOLLOWED -0.2218
-4.4616 FOLLOWING -0.2218
-4.4616 FOLLOWS -0.2218
-4.4616 FOOD -0.2218
-4.4616 FOODS -0.2218
-4.4616 FOOT -0.2218
-4.4616 FOOTBALL -0.2218
-4.4616 FOR -0.2218
-4.4616 FORCE -0.2218
-4.4616 FORCED -0.2218
-4.4616 FORCES -0.2218
-4.4616 FORCING -0.2218
-4.4616 FORD -0.2218
-4.4616 FORECAST -0.2218
-4.4616 FORECASTS -0.2218
-4.4616 FOREIGN -0.2218
-4.4616 FOREIGNERS -0.2218
-4.4616 FOREST -0.2218
-4.4616 FORGET -0.2218
-4.4616 FORM -0.2218
-4.4616 FORMAL -0.2218
-4.4616 FORMALLY -0.2218
-4.4616 FORMED -0.2218
-4.4616 FORMER -0.2218
-4.4616 FORMERLY -0.2218
-4.4616 FORMS -0.2218
-4.4616 FORMULA -0.2218
-4.4616 FORT -0.2218
-4.4616 FORTUNE -0.2218
-4.4616 FORTY -0.2218
-4.4616 FORWARD -0.2218
-4.4616 FOSTER -0.2218
-4.4616 FOUGHT -0.2218
-4.4616 FOUND -0.2218
-4.4616 FOUNDATION -0.2218
-4.4616 FOUNDED -0.2218
-4.4616 FOUNDER -0.2218
-4.4616 FOUR -0.2218
-4.4616 FOURTEEN -0.2218
-4.4616 FOURTEENTH -0.2218
-4.4616 FOURTH -0.2218
-4.4616 FOX -0.2218
-4.4616 FRANCE -0.2218
-4.4616 FRANCHISE -0.2218
-4.4616 FRANCISCO -0.2218
-4.4616 FRANCS -0.2218
-4.4616 FRANK -0.2218
-4.4616 FRANKFURT -0.2218
-4.4616 FRANKLIN -0.2218
-4.4616 FRAUD -0.2218
-4.4616 FRED -0.2218
-4.4616 FREDDIE -0.2218
-4.4616 FREE -0.2218
-4.4616 FREEDOM -0.2218
-4.4616 FREEMAN -0.2218
-4.4616 FREEZE -0.2218
-4.4616 FREIGHT -0.2218
-4.4616 FRENCH -0.2218
-4.4616 FREQUENT -0.2218
-4.4616 FREQUENTLY -0.2218
-4.4616 FRESH -0.2218
-4.4616 FRIDAY -0.2218
-4.4616 FRIEND -0.2218
-4.4616 FRIENDLY -0.2218
-4.4616 FRIENDS -0.2218
-4.4616 FROM -0.2218
-4.4616 FRONT -0.2218
-4.4616 FROZEN -0.2218
-4.4616 FRUIT -0.2218
-4.4616 FUEL -0.2218
-4.4616 FUELED -0.2218
-4.4616 FULL -0.2218
-4.4616 FULLY -0.2218
-4.4616 FUN -0.2218
-4.4616 FUNCTION -0.2218
-4.4616 FUNCTIONS -0.2218
-4.4616 FUND -0.2218
-4.4616 FUNDAMENTAL -0.2218
-4.4616 FUNDAMENTALS -0.2218
-4.4616 FUNDED -0.2218
-4.4616 FUNDING -0.2218
-4.4616 FUNDS -0.2218
-4.4616 FURNITURE -0.2218
-4.4616 FURTHER -0.2218
-4.4616 FUTURE -0.2218
-4.4616 FUTURES -0.2218
-4.4616 GAIN -0.2218
-4.4616 GAINED -0.2218
-4.4616 GAINERS -0.2218
-4.4616 GAINING -0.2218
-4.4616 GAINS -0.2218
-4.4616 GAMBLE -0.2218
-4.4616 GAMBLING -0.2218
-4.4616 GAME -0.2218
-4.4616 GAMES -0.2218
-4.4616 GAP -0.2218
-4.4616 GARDEN -0.2218
-4.4616 GARY -0.2218
-4.4616 GAS -0.2218
-4.4616 GASOLINE -0.2218
-4.4616 GATES -0.2218
-4.4616 GATHERING -0.2218
-4.4616 GAVE -0.2218
-4.4616 GEAR -0.2218
-4.4616 GENE -0.2218
-4.4616 GENENTECH -0.2218
-4.4616 GENERAL -0.2218
-4.4616 GENERALE -0.2218
-4.4616 GENERALLY -0.2218
-4.4616 GENERATE -0.2218
-4.4616 GENERATED -0.2218
-4.4616 GENERATING -0.2218
-4.4616 GENERATION -0.2218
-4.4616 GENERIC -0.2218
-4.4616 GENEROUS -0.2218
-4.4616 GENEVA -0.2218
-4.4616 GEORGE -0.2218
-4.4616 GEORGIA -0.2218
-4.4616 GEPHARDT -0.2218
-4.4616 GERALD -0.2218
-4.4616 GERMAN -0.2218
-4.4616 GERMANS -0.2218
-4.4616 GERMANY -0.2218
-4.4616 GET -0.2218
-4.4616 GETS -0.2218
-4.4616 GETTING -0.2218
-4.4616 GETTY -0.2218
-4.4616 GIANT -0.2218
-4.4616 GIANTS -0.2218
-4.4616 GIFT -0.2218
-4.4616 GILLETTE -0.2218
-4.4616 GIRL -0.2218
-4.4616 GIVE -0.2218
-4.4616 GIVEN -0.2218
-4.4616 GIVES -0.2218
-4.4616 GIVING -0.2218
-4.4616 GLASS -0.2218
-4.4616 GLOBAL -0.2218
-4.4616 GO -0.2218
-4.4616 GOAL -0.2218
-4.4616 GOALS -0.2218
-4.4616 GOD -0.2218
-4.4616 GOES -0.2218
-4.4616 GOING -0.2218
-4.4616 GOLD -0.2218
-4.4616 GOLDEN -0.2218
-4.4616 GOLDMAN -0.2218
-4.4616 GOLF -0.2218
-4.4616 GONE -0.2218
-4.4616 GOOD -0.2218
-4.4616 GOODS -0.2218
-4.4616 GOODYEAR -0.2218
-4.4616 GORBACHEV -0.2218
-4.4616 GORDON -0.2218
-4.4616 GOT -0.2218
-4.4616 GOTTEN -0.2218
-4.4616 GOVERNMENT -0.2218
-4.4616 GOVERNMENTS -0.2218
-4.4616 GOVERNOR -0.2218
-4.4616 GOVERNORS -0.2218
-4.4616 GRACE -0.2218
-4.4616 GRADE -0.2218
-4.4616 GRADUALLY -0.2218
-4.4616 GRADUATE -0.2218
-4.4616 GRAIN -0.2218
-4.4616 GRAMM -0.2218
-4.4616 GRAND -0.2218
-4.4616 GRANT -0.2218
-4.4616 GRANTED -0.2218
-4.4616 GRANTS -0.2218
-4.4616 GRAPHICS -0.2218
-4.4616 GRAY -0.2218
-4.4616 GREAT -0.2218
-4.4616 GREATER -0.2218
-4.4616 GREATEST -0.2218
-4.4616 GREATLY -0.2218
-4.4616 GREEN -0.2218
-4.4616 GREENSPAN -0.2218
-4.4616 GREW -0.2218
-4.4616 GROCERY -0.2218
-4.4616 GROSS -0.2218
-4.4616 GROUND -0.2218
-4.4616 GROUNDS -0.2218
-4.4616 GROUP -0.2218
-4.4616 GROUPS -0.2218
-4.4616 GROW -0.2218
-4.4616 GROWING -0.2218
-4.4616 GROWN -0.2218
-4.4616 GROWTH -0.2218
-4.4616 GUARANTEE -0.2218
-4.4616 GUARANTEED -0.2218
-4.4616 GUARANTEES -0.2218
-4.4616 GUARANTY -0.2218
-4.4616 GUARD -0.2218
-4.4616 GUESS -0.2218
-4.4616 GUIDE -0.2218
-4.4616 GUIDELINES -0.2218
-4.4616 GUILTY -0.2218
-4.4616 GUINNESS -0.2218
-4.4616 GULF -0.2218
-4.4616 GUN -0.2218
-4.4616 GUY -0.2218
-4.4616 GUYS -0.2218
-4.4616 HAAAA -0.2218
-4.4616 HAD -0.2218
-4.4616 HAIR -0.2218
-4.4616 HALF -0.2218
-4.4616 HALL -0.2218
-4.4616 HALT -0.2218
-4.4616 HALTED -0.2218
-4.4616 HAMILTON -0.2218
-4.4616 HAMPSHIRE -0.2218
-4.4616 HAND -0.2218
-4.4616 HANDED -0.2218
-4.4616 HANDFUL -0.2218
-4.4616 HANDLE -0.2218
-4.4616 HANDLED -0.2218
-4.4616 HANDLING -0.2218
-4.4616 HANDS -0.2218
-4.4616 HANOVER -0.2218
-4.4616 HAPPEN -0.2218
-4.4616 HAPPENED -0.2218
-4.4616 HAPPENING -0.2218
-4.4616 HAPPENS -0.2218
-4.4616 HAPPY -0.2218
-4.4616 HARD -0.2218
-4.4616 HARDER -0.2218
-4.4616 HARDLY -0.2218
-4.4616 HARDWARE -0.2218
-4.4616 HAROLD -0.2218
-4.4616 HARRIS -0.2218
-4.4616 HARRY -0.2218
-4.4616 HART -0.2218
-4.4616 HARTFORD -0.2218
-4.4616 HARVARD -0.2218
-4.4616 HARVEST -0.2218
-4.4616 HAS -0.2218
-4.4616 HAVE -0.2218
-4.4616 HAVING -0.2218
-4.4616 HAZARDOUS -0.2218
-4.4616 HE -0.2218
-4.4616 HEAD -0.2218
-4.4616 HEADED -0.2218
-4.4616 HEADING -0.2218
-4.4616 HEADQUARTERS -0.2218
-4.4616 HEADS -0.2218
-4.4616 HEALTH -0.2218
-4.4616 HEALTHY -0.2218
-4.4616 HEAR -0.2218
-4.4616 HEARD -0.2218
-4.4616 HEARING -0.2218
-4.4616 HEARINGS -0.2218
-4.4616 HEART -0.2218
-4.4616 HEAT -0.2218
-4.4616 HEATING -0.2218
-4.4616 HEAVILY -0.2218
-4.4616 HEAVY -0.2218
-4.4616 HEDGE -0.2218
-4.4616 HEFTY -0.2218
-4.4616 HELD -0.2218
-4.4616 HELICOPTER -0.2218
-4.4616 HELP -0.2218
-4.4616 HELPED -0.2218
-4.4616 HELPING -0.2218
-4.4616 HELPS -0.2218
-4.4616 HENLEY -0.2218
-4.4616 HENRY -0.2218
-4.4616 HER -0.2218
-4.4616 HERALD -0.2218
-4.4616 HERE -0.2218
-4.4616 HERITAGE -0.2218
-4.4616 HEWLETT -0.2218
-4.4616 HIGH -0.2218
-4.4616 HIGHER -0.2218
-4.4616 HIGHEST -0.2218
-4.4616 HIGHLY -0.2218
-4.4616 HIGHS -0.2218
-4.4616 HIGHWAY -0.2218
-4.4616 HILL -0.2218
-4.4616 HILLS -0.2218
-4.4616 HILTON -0.2218
-4.4616 HIM -0.2218
-4.4616 HIMSELF -0.2218
-4.4616 HIRE -0.2218
-4.4616 HIRED -0.2218
-4.4616 HIRING -0.2218
-4.4616 HIS -0.2218
-4.4616 HISTORIC -0.2218
-4.4616 HISTORICAL -0.2218
-4.4616 HISTORY -0.2218
-4.4616 HIT -0.2218
-4.4616 HOLD -0.2218
-4.4616 HOLDER -0.2218
-4.4616 HOLDERS -0.2218
-4.4616 HOLDING -0.2218
-4.4616 HOLDINGS -0.2218
-4.4616 HOLDS -0.2218
-4.4616 HOLIDAY -0.2218
-4.4616 HOLLYWOOD -0.2218
-4.4616 HOLMES -0.2218
-4.4616 HOME -0.2218
-4.4616 HOMES -0.2218
-4.4616 HONDA -0.2218
-4.4616 HONG -0.2218
-4.4616 HONOR -0.2218
-4.4616 HOPE -0.2218
-4.4616 HOPED -0.2218
-4.4616 HOPES -0.2218
-4.4616 HOPING -0.2218
-4.4616 HORSE -0.2218
-4.4616 HOSPITAL -0.2218
-4.4616 HOSPITALS -0.2218
-4.4616 HOST -0.2218
-4.4616 HOSTAGES -0.2218
-4.4616 HOSTILE -0.2218
-4.4616 HOT -0.2218
-4.4616 HOTEL -0.2218
-4.4616 HOTELS -0.2218
-4.4616 HOUR -0.2218
-4.4616 HOURLY -0.2218
-4.4616 HOURS -0.2218
-4.4616 HOUSE -0.2218
-4.4616 HOUSEHOLD -0.2218
-4.4616 HOUSEHOLDS -0.2218
-4.4616 HOUSES -0.2218
-4.4616 HOUSING -0.2218
-4.4616 HOUSTON -0.2218
-4.4616 HOW -0.2218
-4.4616 HOWARD -0.2218
-4.4616 HOWEVER -0.2218
-4.4616 HUD -0.2218
-4.4616 HUDSON -0.2218
-4.4616 HUGE -0.2218
-4.4616 HUGHES -0.2218
-4.4616 HUMAN -0.2218
-4.4616 HUNDRED -0.2218
-4.4616 HUNDREDS -0.2218
-4.4616 HUNT -0.2218
-4.4616 HUNTING -0.2218
-4.4616 HURT -0.2218
-4.4616 HUSBAND -0.2218
-4.4616 HUTTON -0.2218
-4.4616 I -0.2218
-4.4616 ICAHN -0.2218
-4.4616 ICE -0.2218
-4.4616 IDEA -0.2218
-4.4616 IDEAS -0.2218
-4.4616 IDENTIFIED -0.2218
-4.4616 IDENTIFY -0.2218
-4.4616 IDENTITY -0.2218
-4.4616 IF -0.2218
-4.4616 IGNORE -0.2218
-4.4616 IGNORED -0.2218
-4.4616 ILL -0.2218
-4.4616 ILLEGAL -0.2218
-4.4616 ILLEGALLY -0.2218
-4.4616 ILLINOIS -0.2218
-4.4616 IMAGE -0.2218
-4.4616 IMAGINE -0.2218
-4.4616 IMMEDIATE -0.2218
-4.4616 IMMEDIATELY -0.2218
-4.4616 IMMIGRANTS -0.2218
-4.4616 IMMIGRATION -0.2218
-4.4616 IMMUNE -0.2218
-4.4616 IMPACT -0.2218
-4.4616 IMPERIAL -0.2218
-4.4616 IMPLICATIONS -0.2218
-4.4616 IMPORT -0.2218
-4.4616 IMPORTANCE -0.2218
-4.4616 IMPORTANT -0.2218
-4.4616 IMPORTED -0.2218
-4.4616 IMPORTS -0.2218
-4.4616 IMPOSE -0.2218
-4.4616 IMPOSED -0.2218
-4.4616 IMPOSSIBLE -0.2218
-4.4616 IMPRESSION -0.2218
-4.4616 IMPRESSIVE -0.2218
-4.4616 IMPROPER -0.2218
-4.4616 IMPROVE -0.2218
-4.4616 IMPROVED -0.2218
-4.4616 IMPROVEMENT -0.2218
-4.4616 IMPROVEMENTS -0.2218
-4.4616 IMPROVING -0.2218
-4.4616 IN -0.2218
-4.4616 INADEQUATE -0.2218
-4.4616 INCENTIVE -0.2218
-4.4616 INCENTIVES -0.2218
-4.4616 INCH -0.2218
-4.4616 INCIDENT -0.2218
-4.4616 INCLUDE -0.2218
-4.4616 INCLUDED -0.2218
-4.4616 INCLUDES -0.2218
-4.4616 INCLUDING -0.2218
-4.4616 INCOME -0.2218
-4.4616 INCORPORATED -0.2218
-4.4616 INCREASE -0.2218
-4.4616 INCREASED -0.2218
-4.4616 INCREASES -0.2218
-4.4616 INCREASING -0.2218
-4.4616 INCREASINGLY -0.2218
-4.4616 INCURRED -0.2218
-4.4616 INDEED -0.2218
-4.4616 INDEPENDENCE -0.2218
-4.4616 INDEPENDENT -0.2218
-4.4616 INDEX -0.2218
-4.4616 INDEXES -0.2218
-4.4616 INDIA -0.2218
-4.4616 INDIAN -0.2218
-4.4616 INDIANA -0.2218
-4.4616 INDICATE -0.2218
-4.4616 INDICATED -0.2218
-4.4616 INDICATES -0.2218
-4.4616 INDICATING -0.2218
-4.4616 INDICATION -0.2218
-4.4616 INDICATIONS -0.2218
-4.4616 INDICATOR -0.2218
-4.4616 INDICATORS -0.2218
-4.4616 INDICTED -0.2218
-4.4616 INDICTMENT -0.2218
-4.4616 INDIVIDUAL -0.2218
-4.4616 INDIVIDUALS -0.2218
-4.4616 INDUSTRIAL -0.2218
-4.4616 INDUSTRIALS -0.2218
-4.4616 INDUSTRIES -0.2218
-4.4616 INDUSTRY -0.2218
-4.4616 INEVITABLE -0.2218
-4.4616 INFLATION -0.2218
-4.4616 INFLATIONARY -0.2218
-4.4616 INFLUENCE -0.2218
-4.4616 INFLUENTIAL -0.2218
-4.4616 INFORMAL -0.2218
-4.4616 INFORMATION -0.2218
-4.4616 INFORMED -0.2218
-4.4616 INITIAL -0.2218
-4.4616 INITIALLY -0.2218
-4.4616 INITIATIVE -0.2218
-4.4616 INJUNCTION -0.2218
-4.4616 INJURED -0.2218
-4.4616 INJURIES -0.2218
-4.4616 INJURY -0.2218
-4.4616 INQUIRY -0.2218
-4.4616 INSIDE -0.2218
-4.4616 INSIDER -0.2218
-4.4616 INSIDERS -0.2218
-4.4616 INSIST -0.2218
-4.4616 INSISTED -0.2218
-4.4616 INSISTS -0.2218
-4.4616 INSOLVENT -0.2218
-4.4616 INSPECTION -0.2218
-4.4616 INSTALLED -0.2218
-4.4616 INSTANCE -0.2218
-4.4616 INSTEAD -0.2218
-4.4616 INSTITUTE -0.2218
-4.4616 INSTITUTION -0.2218
-4.4616 INSTITUTIONAL -0.2218
-4.4616 INSTITUTIONS -0.2218
-4.4616 INSTRUMENT -0.2218
-4.4616 INSTRUMENTS -0.2218
-4.4616 INSURANCE -0.2218
-4.4616 INSURED -0.2218
-4.4616 INSURER -0.2218
-4.4616 INSURERS -0.2218
-4.4616 INTEGRATED -0.2218
-4.4616 INTEL -0.2218
-4.4616 INTELLECTUAL -0.2218
-4.4616 INTELLIGENCE -0.2218
-4.4616 INTEND -0.2218
-4.4616 INTENDED -0.2218
-4.4616 INTENDS -0.2218
-4.4616 INTENSE -0.2218
-4.4616 INTENT -0.2218
-4.4616 INTENTION -0.2218
-4.4616 INTENTIONS -0.2218
-4.4616 INTERBANK -0.2218
-4.4616 INTEREST -0.2218
-4.4616 INTERESTED -0.2218
-4.4616 INTERESTING -0.2218
-4.4616 INTERESTS -0.2218
-4.4616 INTERIM -0.2218
-4.4616 INTERIOR -0.2218
-4.4616 INTERMEDIATE -0.2218
-4.4616 INTERNAL -0.2218
-4.4616 INTERNATIONAL -0.2218
-4.4616 INTERPRETATION -0.2218
-4.4616 INTERSTATE -0.2218
-4.4616 INTERVENTION -0.2218
-4.4616 INTERVIEW -0.2218
-4.4616 INTERVIEWED -0.2218
-4.4616 INTERVIEWS -0.2218
-4.4616 INTO -0.2218
-4.4616 INTRODUCE -0.2218
-4.4616 INTRODUCED -0.2218
-4.4616 INTRODUCTION -0.2218
-4.4616 INVENTORIES -0.2218
-4.4616 INVENTORY -0.2218
-4.4616 INVEST -0.2218
-4.4616 INVESTED -0.2218
-4.4616 INVESTIGATE -0.2218
-4.4616 INVESTIGATING -0.2218
-4.4616 INVESTIGATION -0.2218
-4.4616 INVESTIGATIONS -0.2218
-4.4616 INVESTIGATORS -0.2218
-4.4616 INVESTING -0.2218
-4.4616 INVESTMENT -0.2218
-4.4616 INVESTMENTS -0.2218
-4.4616 INVESTOR -0.2218
-4.4616 INVESTORS -0.2218
-4.4616 INVITED -0.2218
-4.4616 INVOLVE -0.2218
-4.4616 INVOLVED -0.2218
-4.4616 INVOLVEMENT -0.2218
-4.4616 INVOLVES -0.2218
-4.4616 INVOLVING -0.2218
-4.4616 IOWA -0.2218
-4.4616 IRAN -0.2218
-4.4616 IRANIAN -0.2218
-4.4616 IRAQ -0.2218
-4.4616 IRAQI -0.2218
-4.4616 IRISH -0.2218
-4.4616 IRON -0.2218
-4.4616 IRVING -0.2218
-4.4616 IS -0.2218
-4.4616 ISLAND -0.2218
-4.4616 ISRAEL -0.2218
-4.4616 ISRAELI -0.2218
-4.4616 ISSUE -0.2218
-4.4616 ISSUED -0.2218
-4.4616 ISSUES -0.2218
-4.4616 ISSUING -0.2218
-4.4616 IT -0.2218
-4.4616 ITALIAN -0.2218
-4.4616 ITALY -0.2218
-4.4616 ITEM -0.2218
-4.4616 ITEMS -0.2218
-4.4616 ITS -0.2218
-4.4616 ITSELF -0.2218
-4.4616 IVAN -0.2218
-4.4616 JACK -0.2218
-4.4616 JACKSON -0.2218
-4.4616 JACOBS -0.2218
-4.4616 JAIL -0.2218
-4.4616 JAMES -0.2218
-4.4616 JANUARY -0.2218
-4.4616 JAPAN -0.2218
-4.4616 JAPANESE -0.2218
-4.4616 JEFFERIES -0.2218
-4.4616 JEFFREY -0.2218
-4.4616 JERRY -0.2218
-4.4616 JERSEY -0.2218
-4.4616 JESSE -0.2218
-4.4616 JET -0.2218
-4.4616 JETS -0.2218
-4.4616 JEWISH -0.2218
-4.4616 JIM -0.2218
-4.4616 JOB -0.2218
-4.4616 JOBS -0.2218
-4.4616 JOE -0.2218
-4.4616 JOHN -0.2218
-4.4616 JOHNSON -0.2218
-4.4616 JOIN -0.2218
-4.4616 JOINED -0.2218
-4.4616 JOINING -0.2218
-4.4616 JOINT -0.2218
-4.4616 JOINTLY -0.2218
-4.4616 JONES -0.2218
-4.4616 JORDAN -0.2218
-4.4616 JOSE -0.2218
-4.4616 JOSEPH -0.2218
-4.4616 JOURNAL -0.2218
-4.4616 JOURNALISTS -0.2218
-4.4616 JUDGE -0.2218
-4.4616 JUDGES -0.2218
-4.4616 JUDGMENT -0.2218
-4.4616 JUDICIAL -0.2218
-4.4616 JULY -0.2218
-4.4616 JUMP -0.2218
-4.4616 JUMPED -0.2218
-4.4616 JUNE -0.2218
-4.4616 JUNIOR -0.2218
-4.4616 JUNK -0.2218
-4.4616 JURY -0.2218
-4.4616 JUST -0.2218
-4.4616 JUSTICE -0.2218
-4.4616 JUSTICES -0.2218
-4.4616 JUSTIFY -0.2218
-4.4616 KANSAS -0.2218
-4.4616 KEEP -0.2218
-4.4616 KEEPING -0.2218
-4.4616 KEEPS -0.2218
-4.4616 KEMP -0.2218
-4.4616 KENNEDY -0.2218
-4.4616 KENNETH -0.2218
-4.4616 KENTUCKY -0.2218
-4.4616 KEPT -0.2218
-4.4616 KEY -0.2218
-4.4616 KIDDER -0.2218
-4.4616 KIDS -0.2218
-4.4616 KILL -0.2218
-4.4616 KILLED -0.2218
-4.4616 KILLING -0.2218
-4.4616 KIM -0.2218
-4.4616 KIND -0.2218
-4.4616 KINDS -0.2218
-4.4616 KING -0.2218
-4.4616 KINGDOM -0.2218
-4.4616 KNEW -0.2218
-4.4616 KNIGHT -0.2218
-4.4616 KNOW -0.2218
-4.4616 KNOWLEDGE -0.2218
-4.4616 KNOWN -0.2218
-4.4616 KNOWS -0.2218
-4.4616 KODAK -0.2218
-4.4616 KOHLBERG -0.2218
-4.4616 KONG -0.2218
-4.4616 KOREA -0.2218
-4.4616 KOREAN -0.2218
-4.4616 KRAFT -0.2218
-4.4616 KRAVIS -0.2218
-4.4616 KUWAIT -0.2218
-4.4616 LA -0.2218
-4.4616 LAB -0.2218
-4.4616 LABEL -0.2218
-4.4616 LABOR -0.2218
-4.4616 LABORATORIES -0.2218
-4.4616 LABORATORY -0.2218
-4.4616 LACK -0.2218
-4.4616 LAID -0.2218
-4.4616 LAKE -0.2218
-4.4616 LAMBERT -0.2218
-4.4616 LAND -0.2218
-4.4616 LANDING -0.2218
-4.4616 LANGUAGE -0.2218
-4.4616 LARGE -0.2218
-4.4616 LARGELY -0.2218
-4.4616 LARGER -0.2218
-4.4616 LARGEST -0.2218
-4.4616 LARRY -0.2218
-4.4616 LAS -0.2218
-4.4616 LASER -0.2218
-4.4616 LAST -0.2218
-4.4616 LATE -0.2218
-4.4616 LATELY -0.2218
-4.4616 LATER -0.2218
-4.4616 LATEST -0.2218
-4.4616 LATIN -0.2218
-4.4616 LATTER -0.2218
-4.4616 LAUNCH -0.2218
-4.4616 LAUNCHED -0.2218
-4.4616 LAUNCHING -0.2218
-4.4616 LAW -0.2218
-4.4616 LAWMAKERS -0.2218
-4.4616 LAWRENCE -0.2218
-4.4616 LAWS -0.2218
-4.4616 LAWSON -0.2218
-4.4616 LAWSUIT -0.2218
-4.4616 LAWSUITS -0.2218
-4.4616 LAWYER -0.2218
-4.4616 LAWYERS -0.2218
-4.4616 LAY -0.2218
-4.4616 LAYOFFS -0.2218
-4.4616 LEAD -0.2218
-4.4616 LEADER -0.2218
-4.4616 LEADERS -0.2218
-4.4616 LEADERSHIP -0.2218
-4.4616 LEADING -0.2218
-4.4616 LEADS -0.2218
-4.4616 LEAGUE -0.2218
-4.4616 LEARN -0.2218
-4.4616 LEARNED -0.2218
-4.4616 LEARNING -0.2218
-4.4616 LEASE -0.2218
-4.4616 LEASES -0.2218
-4.4616 LEASING -0.2218
-4.4616 LEAST -0.2218
-4.4616 LEAVE -0.2218
-4.4616 LEAVES -0.2218
-4.4616 LEAVING -0.2218
-4.4616 LEBANON -0.2218
-4.4616 LED -0.2218
-4.4616 LEE -0.2218
-4.4616 LEFT -0.2218
-4.4616 LEGAL -0.2218
-4.4616 LEGISLATION -0.2218
-4.4616 LEGISLATIVE -0.2218
-4.4616 LEGISLATORS -0.2218
-4.4616 LEGISLATURE -0.2218
-4.4616 LEGITIMATE -0.2218
-4.4616 LEHMAN -0.2218
-4.4616 LEND -0.2218
-4.4616 LENDER -0.2218
-4.4616 LENDERS -0.2218
-4.4616 LENDING -0.2218
-4.4616 LENGTH -0.2218
-4.4616 LENGTHY -0.2218
-4.4616 LEONARD -0.2218
-4.4616 LESS -0.2218
-4.4616 LET -0.2218
-4.4616 LETTER -0.2218
-4.4616 LETTERS -0.2218
-4.4616 LETTING -0.2218
-4.4616 LEVEL -0.2218
-4.4616 LEVELS -0.2218
-4.4616 LEVERAGE -0.2218
-4.4616 LEVERAGED -0.2218
-4.4616 LEVINE -0.2218
-4.4616 LEVY -0.2218
-4.4616 LEWIS -0.2218
-4.4616 LIABILITIES -0.2218
-4.4616 LIABILITY -0.2218
-4.4616 LIBERAL -0.2218
-4.4616 LIBERALS -0.2218
-4.4616 LIBERTY -0.2218
-4.4616 LIBRARY -0.2218
-4.4616 LICENSE -0.2218
-4.4616 LICENSES -0.2218
-4.4616 LICENSING -0.2218
-4.4616 LIE -0.2218
-4.4616 LIES -0.2218
-4.4616 LIEUTENANT -0.2218
-4.4616 LIFE -0.2218
-4.4616 LIFT -0.2218
-4.4616 LIFTED -0.2218
-4.4616 LIGHT -0.2218
-4.4616 LIKE -0.2218
-4.4616 LIKELY -0.2218
-4.4616 LIKES -0.2218
-4.4616 LIMIT -0.2218
-4.4616 LIMITED -0.2218
-4.4616 LIMITING -0.2218
-4.4616 LIMITS -0.2218
-4.4616 LINCOLN -0.2218
-4.4616 LINE -0.2218
-4.4616 LINES -0.2218
-4.4616 LINK -0.2218
-4.4616 LINKED -0.2218
-4.4616 LIQUID -0.2218
-4.4616 LIQUIDATION -0.2218
-4.4616 LIQUIDITY -0.2218
-4.4616 LIQUOR -0.2218
-4.4616 LIRE -0.2218
-4.4616 LIST -0.2218
-4.4616 LISTED -0.2218
-4.4616 LISTING -0.2218
-4.4616 LISTS -0.2218
-4.4616 LITIGATION -0.2218
-4.4616 LITTLE -0.2218
-4.4616 LIVE -0.2218
-4.4616 LIVED -0.2218
-4.4616 LIVES -0.2218
-4.4616 LIVING -0.2218
-4.4616 LLOYD -0.2218
-4.4616 LOAD -0.2218
-4.4616 LOAN -0.2218
-4.4616 LOANS -0.2218
-4.4616 LOBBY -0.2218
-4.4616 LOBBYING -0.2218
-4.4616 LOCAL -0.2218
-4.4616 LOCATED -0.2218
-4.4616 LOCATION -0.2218
-4.4616 LOCKHEED -0.2218
-4.4616 LONDON -0.2218
-4.4616 LONG -0.2218
-4.4616 LONGER -0.2218
-4.4616 LONGTIME -0.2218
-4.4616 LOOK -0.2218
-4.4616 LOOKED -0.2218
-4.4616 LOOKING -0.2218
-4.4616 LOOKS -0.2218
-4.4616 LORD -0.2218
-4.4616 LORIMAR -0.2218
-4.4616 LOS -0.2218
-4.4616 LOSE -0.2218
-4.4616 LOSING -0.2218
-4.4616 LOSS -0.2218
-4.4616 LOSSES -0.2218
-4.4616 LOST -0.2218
-4.4616 LOT -0.2218
-4.4616 LOTS -0.2218
-4.4616 LOTUS -0.2218
-4.4616 LOUIS -0.2218
-4.4616 LOUISIANA -0.2218
-4.4616 LOVE -0.2218
-4.4616 LOW -0.2218
-4.4616 LOWER -0.2218
-4.4616 LOWERED -0.2218
-4.4616 LOWERING -0.2218
-4.4616 LOWEST -0.2218
-4.4616 LOWS -0.2218
-4.4616 LOYALTY -0.2218
-4.4616 LUCKY -0.2218
-4.4616 LUCRATIVE -0.2218
-4.4616 LUFKIN -0.2218
-4.4616 LUNCH -0.2218
-4.4616 LUXURY -0.2218
-4.4616 LYNCH -0.2218
-4.4616 MAC -0.2218
-4.4616 MACHINE -0.2218
-4.4616 MACHINERY -0.2218
-4.4616 MACHINES -0.2218
-4.4616 MACMILLAN -0.2218
-4.4616 MADE -0.2218
-4.4616 MAE -0.2218
-4.4616 MAGAZINE -0.2218
-4.4616 MAGAZINES -0.2218
-4.4616 MAIL -0.2218
-4.4616 MAIN -0.2218
-4.4616 MAINE -0.2218
-4.4616 MAINLY -0.2218
-4.4616 MAINTAIN -0.2218
-4.4616 MAINTAINED -0.2218
-4.4616 MAINTAINING -0.2218
-4.4616 MAINTAINS -0.2218
-4.4616 MAINTENANCE -0.2218
-4.4616 MAJOR -0.2218
-4.4616 MAJORITY -0.2218
-4.4616 MAKE -0.2218
-4.4616 MAKER -0.2218
-4.4616 MAKERS -0.2218
-4.4616 MAKES -0.2218
-4.4616 MAKING -0.2218
-4.4616 MALE -0.2218
-4.4616 MAN -0.2218
-4.4616 MANAGE -0.2218
-4.4616 MANAGED -0.2218
-4.4616 MANAGEMENT -0.2218
-4.4616 MANAGER -0.2218
-4.4616 MANAGERS -0.2218
-4.4616 MANAGES -0.2218
-4.4616 MANAGING -0.2218
-4.4616 MANDATORY -0.2218
-4.4616 MANHATTAN -0.2218
-4.4616 MANILA -0.2218
-4.4616 MANNER -0.2218
-4.4616 MANUFACTURED -0.2218
-4.4616 MANUFACTURER -0.2218
-4.4616 MANUFACTURERS -0.2218
-4.4616 MANUFACTURING -0.2218
-4.4616 MANY -0.2218
-4.4616 MARCH -0.2218
-4.4616 MARCOS -0.2218
-4.4616 MARGIN -0.2218
-4.4616 MARGINAL -0.2218
-4.4616 MARGINS -0.2218
-4.4616 MARINE -0.2218
-4.4616 MARK -0.2218
-4.4616 MARKED -0.2218
-4.4616 MARKET -0.2218
-4.4616 MARKETING -0.2218
-4.4616 MARKETPLACE -0.2218
-4.4616 MARKETS -0.2218
-4.4616 MARKS -0.2218
-4.4616 MARRIAGE -0.2218
-4.4616 MARRIED -0.2218
-4.4616 MARSHALL -0.2218
-4.4616 MART -0.2218
-4.4616 MARTIN -0.2218
-4.4616 MARY -0.2218
-4.4616 MARYLAND -0.2218
-4.4616 MASS -0.2218
-4.4616 MASSACHUSETTS -0.2218
-4.4616 MASSIVE -0.2218
-4.4616 MASTER -0.2218
-4.4616 MATCH -0.2218
-4.4616 MATERIAL -0.2218
-4.4616 MATERIALS -0.2218
-4.4616 MATTER -0.2218
-4.4616 MATTERS -0.2218
-4.4616 MATURE -0.2218
-4.4616 MATURITY -0.2218
-4.4616 MAXIMUM -0.2218
-4.4616 MAXWELL -0.2218
-4.4616 MAY -0.2218
-4.4616 MAYBE -0.2218
-4.4616 MAYOR -0.2218
-4.4616 MCDONNELL -0.2218
-4.4616 ME -0.2218
-4.4616 MEAN -0.2218
-4.4616 MEANING -0.2218
-4.4616 MEANS -0.2218
-4.4616 MEANT -0.2218
-4.4616 MEANTIME -0.2218
-4.4616 MEANWHILE -0.2218
-4.4616 MEASURE -0.2218
-4.4616 MEASURED -0.2218
-4.4616 MEASURES -0.2218
-4.4616 MEAT -0.2218
-4.4616 MEDIA -0.2218
-4.4616 MEDICAL -0.2218
-4.4616 MEDICARE -0.2218
-4.4616 MEDICINE -0.2218
-4.4616 MEDIUM -0.2218
-4.4616 MEESE -0.2218
-4.4616 MEET -0.2218
-4.4616 MEETING -0.2218
-4.4616 MEETINGS -0.2218
-4.4616 MELLON -0.2218
-4.4616 MEMBER -0.2218
-4.4616 MEMBERS -0.2218
-4.4616 MEMBERSHIP -0.2218
-4.4616 MEMO -0.2218
-4.4616 MEMORIES -0.2218
-4.4616 MEMORY -0.2218
-4.4616 MEN -0.2218
-4.4616 MENTION -0.2218
-4.4616 MENTIONED -0.2218
-4.4616 MERC -0.2218
-4.4616 MERCANTILE -0.2218
-4.4616 MERCHANDISE -0.2218
-4.4616 MERCHANT -0.2218
-4.4616 MERE -0.2218
-4.4616 MERELY -0.2218
-4.4616 MERGE -0.2218
-4.4616 MERGED -0.2218
-4.4616 MERGER -0.2218
-4.4616 MERGERS -0.2218
-4.4616 MERIT -0.2218
-4.4616 MERRILL -0.2218
-4.4616 MESA -0.2218
-4.4616 MESSAGE -0.2218
-4.4616 MET -0.2218
-4.4616 METAL -0.2218
-4.4616 METALS -0.2218
-4.4616 METHOD -0.2218
-4.4616 METHODS -0.2218
-4.4616 METRIC -0.2218
-4.4616 METROPOLITAN -0.2218
-4.4616 MEXICAN -0.2218
-4.4616 MEXICO -0.2218
-4.4616 MIAMI -0.2218
-4.4616 MICHAEL -0.2218
-4.4616 MICHIGAN -0.2218
-4.4616 MICROSOFT -0.2218
-4.4616 MID -0.2218
-4.4616 MIDDLE -0.2218
-4.4616 MIDLAND -0.2218
-4.4616 MIDWEST -0.2218
-4.4616 MIGHT -0.2218
-4.4616 MIKHAIL -0.2218
-4.4616 MILAN -0.2218
-4.4616 MILE -0.2218
-4.4616 MILES -0.2218
-4.4616 MILITARY -0.2218
-4.4616 MILK -0.2218
-4.4616 MILKEN -0.2218
-4.4616 MILL -0.2218
-4.4616 MILLER -0.2218
-4.4616 MILLION -0.2218
-4.4616 MILLIONS -0.2218
-4.4616 MILLS -0.2218
-4.4616 MIND -0.2218
-4.4616 MINDS -0.2218
-4.4616 MINE -0.2218
-4.4616 MINERALS -0.2218
-4.4616 MINES -0.2218
-4.4616 MINIMUM -0.2218
-4.4616 MINING -0.2218
-4.4616 MINISTER -0.2218
-4.4616 MINISTERS -0.2218
-4.4616 MINISTRY -0.2218
-4.4616 MINNEAPOLIS -0.2218
-4.4616 MINNESOTA -0.2218
-4.4616 MINOR -0.2218
-4.4616 MINORITY -0.2218
-4.4616 MINUS -0.2218
-4.4616 MINUTE -0.2218
-4.4616 MINUTES -0.2218
-4.4616 MIRROR -0.2218
-4.4616 MISLEADING -0.2218
-4.4616 MISS -0.2218
-4.4616 MISSED -0.2218
-4.4616 MISSILE -0.2218
-4.4616 MISSILES -0.2218
-4.4616 MISSING -0.2218
-4.4616 MISSION -0.2218
-4.4616 MISSISSIPPI -0.2218
-4.4616 MISSOURI -0.2218
-4.4616 MISTAKE -0.2218
-4.4616 MISTAKES -0.2218
-4.4616 MITCHELL -0.2218
-4.4616 MITSUBISHI -0.2218
-4.4616 MIX -0.2218
-4.4616 MIXED -0.2218
-4.4616 MOBIL -0.2218
-4.4616 MOBILE -0.2218
-4.4616 MODEL -0.2218
-4.4616 MODELS -0.2218
-4.4616 MODERATE -0.2218
-4.4616 MODERN -0.2218
-4.4616 MODEST -0.2218
-4.4616 MOMENT -0.2218
-4.4616 MOMENTUM -0.2218
-4.4616 MONDAY -0.2218
-4.4616 MONETARY -0.2218
-4.4616 MONEY -0.2218
-4.4616 MONITOR -0.2218
-4.4616 MONITORING -0.2218
-4.4616 MONOPOLY -0.2218
-4.4616 MONTGOMERY -0.2218
-4.4616 MONTH -0.2218
-4.4616 MONTHLY -0.2218
-4.4616 MONTHS -0.2218
-4.4616 MONTREAL -0.2218
-4.4616 MOOD -0.2218
-4.4616 MOORE -0.2218
-4.4616 MORAL -0.2218
-4.4616 MORE -0.2218
-4.4616 MOREOVER -0.2218
-4.4616 MORGAN -0.2218
-4.4616 MORNING -0.2218
-4.4616 MORRIS -0.2218
-4.4616 MORTGAGE -0.2218
-4.4616 MORTGAGES -0.2218
-4.4616 MOSCOW -0.2218
-4.4616 MOST -0.2218
-4.4616 MOSTLY -0.2218
-4.4616 MOTHER -0.2218
-4.4616 MOTION -0.2218
-4.4616 MOTOR -0.2218
-4.4616 MOTORS -0.2218
-4.4616 MOUNT -0.2218
-4.4616 MOUNTAIN -0.2218
-4.4616 MOUNTING -0.2218
-4.4616 MOVE -0.2218
-4.4616 MOVED -0.2218
-4.4616 MOVEMENT -0.2218
-4.4616 MOVEMENTS -0.2218
-4.4616 MOVES -0.2218
-4.4616 MOVIE -0.2218
-4.4616 MOVIES -0.2218
-4.4616 MOVING -0.2218
-4.4616 MUCH -0.2218
-4.4616 MULTIPLE -0.2218
-4.4616 MUNICIPAL -0.2218
-4.4616 MURDER -0.2218
-4.4616 MURDOCH -0.2218
-4.4616 MURPHY -0.2218
-4.4616 MURRAY -0.2218
-4.4616 MUSEUM -0.2218
-4.4616 MUSIC -0.2218
-4.4616 MUST -0.2218
-4.4616 MUTUAL -0.2218
-4.4616 MY -0.2218
-4.4616 MYERS -0.2218
-4.4616 MYSELF -0.2218
-4.4616 NABISCO -0.2218
-4.4616 NAME -0.2218
-4.4616 NAMED -0.2218
-4.4616 NAMES -0.2218
-4.4616 NARROW -0.2218
-4.4616 NARROWED -0.2218
-4.4616 NASDAQ -0.2218
-4.4616 NATION -0.2218
-4.4616 NATIONAL -0.2218
-4.4616 NATIONS -0.2218
-4.4616 NATIONWIDE -0.2218
-4.4616 NATIVE -0.2218
-4.4616 NATO -0.2218
-4.4616 NATURAL -0.2218
-4.4616 NATURE -0.2218
-4.4616 NAVAL -0.2218
-4.4616 NAVY -0.2218
-4.4616 NEAR -0.2218
-4.4616 NEARBY -0.2218
-4.4616 NEARLY -0.2218
-4.4616 NECESSARILY -0.2218
-4.4616 NECESSARY -0.2218
-4.4616 NEED -0.2218
-4.4616 NEEDED -0.2218
-4.4616 NEEDS -0.2218
-4.4616 NEGATIVE -0.2218
-4.4616 NEGOTIATE -0.2218
-4.4616 NEGOTIATED -0.2218
-4.4616 NEGOTIATING -0.2218
-4.4616 NEGOTIATIONS -0.2218
-4.4616 NEGOTIATORS -0.2218
-4.4616 NEIGHBORHOOD -0.2218
-4.4616 NEITHER -0.2218
-4.4616 NELSON -0.2218
-4.4616 NERVOUS -0.2218
-4.4616 NET -0.2218
-4.4616 NETHERLANDS -0.2218
-4.4616 NETWORK -0.2218
-4.4616 NETWORKS -0.2218
-4.4616 NEVADA -0.2218
-4.4616 NEVER -0.2218
-4.4616 NEVERTHELESS -0.2218
-4.4616 NEW -0.2218
-4.4616 NEWLY -0.2218
-4.4616 NEWMONT -0.2218
-4.4616 NEWPORT -0.2218
-4.4616 NEWS -0.2218
-4.4616 NEWSLETTER -0.2218
-4.4616 NEWSPAPER -0.2218
-4.4616 NEWSPAPERS -0.2218
-4.4616 NEWSPRINT -0.2218
-4.4616 NEXT -0.2218
-4.4616 NICARAGUA -0.2218
-4.4616 NICARAGUAN -0.2218
-4.4616 NICE -0.2218
-4.4616 NIGHT -0.2218
-4.4616 NIKKEI -0.2218
-4.4616 NINE -0.2218
-4.4616 NINETEEN -0.2218
-4.4616 NINETEENTH -0.2218
-4.4616 NINETIES -0.2218
-4.4616 NINETY -0.2218
-4.4616 NINTH -0.2218
-4.4616 NIPPON -0.2218
-4.4616 NISSAN -0.2218
-4.4616 NIXON -0.2218
-4.4616 NO -0.2218
-4.4616 NOBODY -0.2218
-4.4616 NOMINATION -0.2218
-4.4616 NOMINEE -0.2218
-4.4616 NOMURA -0.2218
-4.4616 NON -0.2218
-4.4616 NONE -0.2218
-4.4616 NONETHELESS -0.2218
-4.4616 NONPROFIT -0.2218
-4.4616 NOR -0.2218
-4.4616 NORIEGA -0.2218
-4.4616 NORMAL -0.2218
-4.4616 NORMALLY -0.2218
-4.4616 NORMAN -0.2218
-4.4616 NORTH -0.2218
-4.4616 NORTHEAST -0.2218
-4.4616 NORTHERN -0.2218
-4.4616 NORTHROP -0.2218
-4.4616 NORTHWEST -0.2218
-4.4616 NOT -0.2218
-4.4616 NOTE -0.2218
-4.4616 NOTED -0.2218
-4.4616 NOTES -0.2218
-4.4616 NOTHING -0.2218
-4.4616 NOTICE -0.2218
-4.4616 NOTING -0.2218
-4.4616 NOTION -0.2218
-4.4616 NOVA -0.2218
-4.4616 NOVEL -0.2218
-4.4616 NOVEMBER -0.2218
-4.4616 NOW -0.2218
-4.4616 NUCLEAR -0.2218
-4.4616 NUMBER -0.2218
-4.4616 NUMBERS -0.2218
-4.4616 NUMEROUS -0.2218
-4.4616 NURSING -0.2218
-4.4616 OBJECTIONS -0.2218
-4.4616 OBJECTIVE -0.2218
-4.4616 OBLIGATION -0.2218
-4.4616 OBLIGATIONS -0.2218
-4.4616 OBSERVERS -0.2218
-4.4616 OBTAIN -0.2218
-4.4616 OBTAINED -0.2218
-4.4616 OBVIOUS -0.2218
-4.4616 OBVIOUSLY -0.2218
-4.4616 OCCASIONALLY -0.2218
-4.4616 OCCIDENTAL -0.2218
-4.4616 OCCUPIED -0.2218
-4.4616 OCCUR -0.2218
-4.4616 OCCURRED -0.2218
-4.4616 OCEAN -0.2218
-4.4616 OCTOBER -0.2218
-4.4616 ODDS -0.2218
-4.4616 OF -0.2218
-4.4616 OFF -0.2218
-4.4616 OFFENSIVE -0.2218
-4.4616 OFFER -0.2218
-4.4616 OFFERED -0.2218
-4.4616 OFFERING -0.2218
-4.4616 OFFERINGS -0.2218
-4.4616 OFFERS -0.2218
-4.4616 OFFICE -0.2218
-4.4616 OFFICER -0.2218
-4.4616 OFFICERS -0.2218
-4.4616 OFFICES -0.2218
-4.4616 OFFICIAL -0.2218
-4.4616 OFFICIALLY -0.2218
-4.4616 OFFICIALS -0.2218
-4.4616 OFFS -0.2218
-4.4616 OFFSET -0.2218
-4.4616 OFFSHORE -0.2218
-4.4616 OFTEN -0.2218
-4.4616 OH -0.2218
-4.4616 OHIO -0.2218
-4.4616 OIL -0.2218
-4.4616 OKLAHOMA -0.2218
-4.4616 OLD -0.2218
-4.4616 OLDER -0.2218
-4.4616 OLIVER -0.2218
-4.4616 OLYMPIC -0.2218
-4.4616 OLYMPICS -0.2218
-4.4616 ON -0.2218
-4.4616 ONCE -0.2218
-4.4616 ONE -0.2218
-4.4616 ONES -0.2218
-4.4616 ONLY -0.2218
-4.4616 ONTARIO -0.2218
-4.4616 ONTO -0.2218
-4.4616 OPEC -0.2218
-4.4616 OPEN -0.2218
-4.4616 OPENED -0.2218
-4.4616 OPENING -0.2218
-4.4616 OPERA -0.2218
-4.4616 OPERATE -0.2218
-4.4616 OPERATED -0.2218
-4.4616 OPERATES -0.2218
-4.4616 OPERATING -0.2218
-4.4616 OPERATION -0.2218
-4.4616 OPERATIONS -0.2218
-4.4616 OPERATOR -0.2218
-4.4616 OPERATORS -0.2218
-4.4616 OPINION -0.2218
-4.4616 OPPENHEIMER -0.2218
-4.4616 OPPONENTS -0.2218
-4.4616 OPPORTUNITIES -0.2218
-4.4616 OPPORTUNITY -0.2218
-4.4616 OPPOSE -0.2218
-4.4616 OPPOSED -0.2218
-4.4616 OPPOSES -0.2218
-4.4616 OPPOSITE -0.2218
-4.4616 OPPOSITION -0.2218
-4.4616 OPTIMISM -0.2218
-4.4616 OPTIMISTIC -0.2218
-4.4616 OPTION -0.2218
-4.4616 OPTIONS -0.2218
-4.4616 OR -0.2218
-4.4616 ORANGE -0.2218
-4.4616 ORDER -0.2218
-4.4616 ORDERED -0.2218
-4.4616 ORDERS -0.2218
-4.4616 ORDINARY -0.2218
-4.4616 OREGON -0.2218
-4.4616 ORGANIZATION -0.2218
-4.4616 ORGANIZATIONS -0.2218
-4.4616 ORGANIZED -0.2218
-4.4616 ORIENTED -0.2218
-4.4616 ORIGINAL -0.2218
-4.4616 ORIGINALLY -0.2218
-4.4616 ORLEANS -0.2218
-4.4616 OTHER -0.2218
-4.4616 OTHERS -0.2218
-4.4616 OTHERWISE -0.2218
-4.4616 OUGHT -0.2218
-4.4616 OUNCE -0.2218
-4.4616 OUNCES -0.2218
-4.4616 OUR -0.2218
-4.4616 OURSELVES -0.2218
-4.4616 OUT -0.2218
-4.4616 OUTCOME -0.2218
-4.4616 OUTLAYS -0.2218
-4.4616 OUTLETS -0.2218
-4.4616 OUTLOOK -0.2218
-4.4616 OUTPUT -0.2218
-4.4616 OUTS -0.2218
-4.4616 OUTSIDE -0.2218
-4.4616 OUTSTANDING -0.2218
-4.4616 OVER -0.2218
-4.4616 OVERALL -0.2218
-4.4616 OVERCOME -0.2218
-4.4616 OVERHAUL -0.2218
-4.4616 OVERNIGHT -0.2218
-4.4616 OVERSEAS -0.2218
-4.4616 OWED -0.2218
-4.4616 OWN -0.2218
-4.4616 OWNED -0.2218
-4.4616 OWNER -0.2218
-4.4616 OWNERS -0.2218
-4.4616 OWNERSHIP -0.2218
-4.4616 OWNS -0.2218
-4.4616 PACE -0.2218
-4.4616 PACIFIC -0.2218
-4.4616 PACKAGE -0.2218
-4.4616 PACKAGES -0.2218
-4.4616 PACKAGING -0.2218
-4.4616 PACKARD -0.2218
-4.4616 PACT -0.2218
-4.4616 PAGE -0.2218
-4.4616 PAGES -0.2218
-4.4616 PAID -0.2218
-4.4616 PAIN -0.2218
-4.4616 PAINEWEBBER -0.2218
-4.4616 PAINTINGS -0.2218
-4.4616 PAKISTAN -0.2218
-4.4616 PALESTINIAN -0.2218
-4.4616 PAN -0.2218
-4.4616 PANAMA -0.2218
-4.4616 PANEL -0.2218
-4.4616 PANIC -0.2218
-4.4616 PAPER -0.2218
-4.4616 PAPERS -0.2218
-4.4616 PAR -0.2218
-4.4616 PARENT -0.2218
-4.4616 PARENTS -0.2218
-4.4616 PARIS -0.2218
-4.4616 PARK -0.2218
-4.4616 PARKER -0.2218
-4.4616 PARKING -0.2218
-4.4616 PARLIAMENT -0.2218
-4.4616 PARLIAMENTARY -0.2218
-4.4616 PART -0.2218
-4.4616 PARTIAL -0.2218
-4.4616 PARTICIPANTS -0.2218
-4.4616 PARTICIPATE -0.2218
-4.4616 PARTICIPATING -0.2218
-4.4616 PARTICIPATION -0.2218
-4.4616 PARTICULAR -0.2218
-4.4616 PARTICULARLY -0.2218
-4.4616 PARTIES -0.2218
-4.4616 PARTLY -0.2218
-4.4616 PARTNER -0.2218
-4.4616 PARTNERS -0.2218
-4.4616 PARTNERSHIP -0.2218
-4.4616 PARTNERSHIPS -0.2218
-4.4616 PARTS -0.2218
-4.4616 PARTY -0.2218
-4.4616 PASS -0.2218
-4.4616 PASSAGE -0.2218
-4.4616 PASSED -0.2218
-4.4616 PASSENGER -0.2218
-4.4616 PASSENGERS -0.2218
-4.4616 PASSING -0.2218
-4.4616 PAST -0.2218
-4.4616 PATENT -0.2218
-4.4616 PATH -0.2218
-4.4616 PATIENT -0.2218
-4.4616 PATIENTS -0.2218
-4.4616 PATRICK -0.2218
-4.4616 PATTERN -0.2218
-4.4616 PAUL -0.2218
-4.4616 PAY -0.2218
-4.4616 PAYABLE -0.2218
-4.4616 PAYING -0.2218
-4.4616 PAYMENT -0.2218
-4.4616 PAYMENTS -0.2218
-4.4616 PAYOUT -0.2218
-4.4616 PAYROLL -0.2218
-4.4616 PAYS -0.2218
-4.4616 PEABODY -0.2218
-4.4616 PEACE -0.2218
-4.4616 PEAK -0.2218
-4.4616 PEAT -0.2218
-4.4616 PENALTIES -0.2218
-4.4616 PENALTY -0.2218
-4.4616 PENCE -0.2218
-4.4616 PENDING -0.2218
-4.4616 PENNSYLVANIA -0.2218
-4.4616 PENNZOIL -0.2218
-4.4616 PENSION -0.2218
-4.4616 PENTAGON -0.2218
-4.4616 PEOPLE -0.2218
-4.4616 PER -0.2218
-4.4616 PERCEIVED -0.2218
-4.4616 PERCENTAGE -0.2218
-4.4616 PERCEPTION -0.2218
-4.4616 PERFECT -0.2218
-4.4616 PERFORM -0.2218
-4.4616 PERFORMANCE -0.2218
-4.4616 PERFORMED -0.2218
-4.4616 PERFORMING -0.2218
-4.4616 PERHAPS -0.2218
-4.4616 PERIOD -0.2218
-4.4616 PERIODS -0.2218
-4.4616 PERMANENT -0.2218
-4.4616 PERMISSION -0.2218
-4.4616 PERMIT -0.2218
-4.4616 PERMITS -0.2218
-4.4616 PERMITTED -0.2218
-4.4616 PEROT -0.2218
-4.4616 PERSIAN -0.2218
-4.4616 PERSON -0.2218
-4.4616 PERSONAL -0.2218
-4.4616 PERSONALLY -0.2218
-4.4616 PERSONNEL -0.2218
-4.4616 PERSONS -0.2218
-4.4616 PERSPECTIVE -0.2218
-4.4616 PERSUADE -0.2218
-4.4616 PETER -0.2218
-4.4616 PETITION -0.2218
-4.4616 PETROLEUM -0.2218
-4.4616 PHARMACEUTICAL -0.2218
-4.4616 PHARMACEUTICALS -0.2218
-4.4616 PHASE -0.2218
-4.4616 PHILADELPHIA -0.2218
-4.4616 PHILIP -0.2218
-4.4616 PHILIPPINE -0.2218
-4.4616 PHILIPPINES -0.2218
-4.4616 PHILIPS -0.2218
-4.4616 PHILLIPS -0.2218
-4.4616 PHILOSOPHY -0.2218
-4.4616 PHOENIX -0.2218
-4.4616 PHONE -0.2218
-4.4616 PHYSICAL -0.2218
-4.4616 PHYSICIANS -0.2218
-4.4616 PICK -0.2218
-4.4616 PICKED -0.2218
-4.4616 PICKENS -0.2218
-4.4616 PICKING -0.2218
-4.4616 PICTURE -0.2218
-4.4616 PICTURES -0.2218
-4.4616 PIECE -0.2218
-4.4616 PIECES -0.2218
-4.4616 PILL -0.2218
-4.4616 PILLSBURY -0.2218
-4.4616 PILOT -0.2218
-4.4616 PILOTS -0.2218
-4.4616 PIPELINE -0.2218
-4.4616 PIT -0.2218
-4.4616 PITTSBURGH -0.2218
-4.4616 PIZZA -0.2218
-4.4616 PLACE -0.2218
-4.4616 PLACED -0.2218
-4.4616 PLACEMENT -0.2218
-4.4616 PLACES -0.2218
-4.4616 PLAINTIFFS -0.2218
-4.4616 PLAN -0.2218
-4.4616 PLANE -0.2218
-4.4616 PLANES -0.2218
-4.4616 PLANNED -0.2218
-4.4616 PLANNERS -0.2218
-4.4616 PLANNING -0.2218
-4.4616 PLANS -0.2218
-4.4616 PLANT -0.2218
-4.4616 PLANTS -0.2218
-4.4616 PLASTIC -0.2218
-4.4616 PLASTICS -0.2218
-4.4616 PLATFORM -0.2218
-4.4616 PLATINUM -0.2218
-4.4616 PLAY -0.2218
-4.4616 PLAYED -0.2218
-4.4616 PLAYER -0.2218
-4.4616 PLAYERS -0.2218
-4.4616 PLAYING -0.2218
-4.4616 PLAYS -0.2218
-4.4616 PLEA -0.2218
-4.4616 PLEADED -0.2218
-4.4616 PLEASED -0.2218
-4.4616 PLEDGE -0.2218
-4.4616 PLEDGED -0.2218
-4.4616 PLENTY -0.2218
-4.4616 PLUMMETED -0.2218
-4.4616 PLUNGE -0.2218
-4.4616 PLUNGED -0.2218
-4.4616 PLUS -0.2218
-4.4616 POINDEXTER -0.2218
-4.4616 POINT -0.2218
-4.4616 POINTED -0.2218
-4.4616 POINTS -0.2218
-4.4616 POISON -0.2218
-4.4616 POLAND -0.2218
-4.4616 POLICE -0.2218
-4.4616 POLICIES -0.2218
-4.4616 POLICY -0.2218
-4.4616 POLISH -0.2218
-4.4616 POLITICAL -0.2218
-4.4616 POLITICALLY -0.2218
-4.4616 POLITICIANS -0.2218
-4.4616 POLITICS -0.2218
-4.4616 POLL -0.2218
-4.4616 POLLS -0.2218
-4.4616 POLLUTION -0.2218
-4.4616 PONT -0.2218
-4.4616 POOL -0.2218
-4.4616 POOR -0.2218
-4.4616 POPULAR -0.2218
-4.4616 POPULARITY -0.2218
-4.4616 POPULATION -0.2218
-4.4616 PORK -0.2218
-4.4616 PORT -0.2218
-4.4616 PORTFOLIO -0.2218
-4.4616 PORTFOLIOS -0.2218
-4.4616 PORTION -0.2218
-4.4616 POSE -0.2218
-4.4616 POSITION -0.2218
-4.4616 POSITIONS -0.2218
-4.4616 POSITIVE -0.2218
-4.4616 POSSIBILITY -0.2218
-4.4616 POSSIBLE -0.2218
-4.4616 POSSIBLY -0.2218
-4.4616 POST -0.2218
-4.4616 POSTAL -0.2218
-4.4616 POSTED -0.2218
-4.4616 POSTPONED -0.2218
-4.4616 POSTS -0.2218
-4.4616 POTENTIAL -0.2218
-4.4616 POTENTIALLY -0.2218
-4.4616 POUND -0.2218
-4.4616 POUNDS -0.2218
-4.4616 POVERTY -0.2218
-4.4616 POWER -0.2218
-4.4616 POWERFUL -0.2218
-4.4616 POWERS -0.2218
-4.4616 PRACTICAL -0.2218
-4.4616 PRACTICE -0.2218
-4.4616 PRACTICES -0.2218
-4.4616 PRE -0.2218
-4.4616 PRECIOUS -0.2218
-4.4616 PRECISELY -0.2218
-4.4616 PREDICT -0.2218
-4.4616 PREDICTED -0.2218
-4.4616 PREDICTING -0.2218
-4.4616 PREDICTS -0.2218
-4.4616 PREFER -0.2218
-4.4616 PREFERENCE -0.2218
-4.4616 PREFERRED -0.2218
-4.4616 PRELIMINARY -0.2218
-4.4616 PREMIER -0.2218
-4.4616 PREMIUM -0.2218
-4.4616 PREMIUMS -0.2218
-4.4616 PREPARE -0.2218
-4.4616 PREPARED -0.2218
-4.4616 PREPARING -0.2218
-4.4616 PRESCRIPTION -0.2218
-4.4616 PRESENCE -0.2218
-4.4616 PRESENT -0.2218
-4.4616 PRESENTED -0.2218
-4.4616 PRESERVE -0.2218
-4.4616 PRESIDENCY -0.2218
-4.4616 PRESIDENT -0.2218
-4.4616 PRESIDENTIAL -0.2218
-4.4616 PRESIDENTS -0.2218
-4.4616 PRESS -0.2218
-4.4616 PRESSED -0.2218
-4.4616 PRESSING -0.2218
-4.4616 PRESSURE -0.2218
-4.4616 PRESSURES -0.2218
-4.4616 PRETAX -0.2218
-4.4616 PRETTY -0.2218
-4.4616 PREVENT -0.2218
-4.4616 PREVIOUS -0.2218
-4.4616 PREVIOUSLY -0.2218
-4.4616 PRICE -0.2218
-4.4616 PRICED -0.2218
-4.4616 PRICES -0.2218
-4.4616 PRICING -0.2218
-4.4616 PRIMARILY -0.2218
-4.4616 PRIMARY -0.2218
-4.4616 PRIME -0.2218
-4.4616 PRINCETON -0.2218
-4.4616 PRINCIPAL -0.2218
-4.4616 PRINCIPLE -0.2218
-4.4616 PRINCIPLES -0.2218
-4.4616 PRINT -0.2218
-4.4616 PRINTING -0.2218
-4.4616 PRIOR -0.2218
-4.4616 PRIORITY -0.2218
-4.4616 PRISON -0.2218
-4.4616 PRIVATE -0.2218
-4.4616 PRIVATELY -0.2218
-4.4616 PRIVATIZATION -0.2218
-4.4616 PRIZE -0.2218
-4.4616 PRO -0.2218
-4.4616 PROBABLY -0.2218
-4.4616 PROBE -0.2218
-4.4616 PROBLEM -0.2218
-4.4616 PROBLEMS -0.2218
-4.4616 PROCEDURE -0.2218
-4.4616 PROCEDURES -0.2218
-4.4616 PROCEED -0.2218
-4.4616 PROCEEDINGS -0.2218
-4.4616 PROCEEDS -0.2218
-4.4616 PROCESS -0.2218
-4.4616 PROCESSING -0.2218
-4.4616 PROCUREMENT -0.2218
-4.4616 PRODUCE -0.2218
-4.4616 PRODUCED -0.2218
-4.4616 PRODUCER -0.2218
-4.4616 PRODUCERS -0.2218
-4.4616 PRODUCES -0.2218
-4.4616 PRODUCING -0.2218
-4.4616 PRODUCT -0.2218
-4.4616 PRODUCTION -0.2218
-4.4616 PRODUCTIVITY -0.2218
-4.4616 PRODUCTS -0.2218
-4.4616 PROFESSIONAL -0.2218
-4.4616 PROFESSIONALS -0.2218
-4.4616 PROFESSOR -0.2218
-4.4616 PROFILE -0.2218
-4.4616 PROFIT -0.2218
-4.4616 PROFITABILITY -0.2218
-4.4616 PROFITABLE -0.2218
-4.4616 PROFITS -0.2218
-4.4616 PROGRAM -0.2218
-4.4616 PROGRAMMING -0.2218
-4.4616 PROGRAMS -0.2218
-4.4616 PROGRESS -0.2218
-4.4616 PROJECT -0.2218
-4.4616 PROJECTED -0.2218
-4.4616 PROJECTIONS -0.2218
-4.4616 PROJECTS -0.2218
-4.4616 PROMINENT -0.2218
-4.4616 PROMISE -0.2218
-4.4616 PROMISED -0.2218
-4.4616 PROMISES -0.2218
-4.4616 PROMISING -0.2218
-4.4616 PROMOTE -0.2218
-4.4616 PROMOTING -0.2218
-4.4616 PROMOTION -0.2218
-4.4616 PROMPT -0.2218
-4.4616 PROMPTED -0.2218
-4.4616 PROOF -0.2218
-4.4616 PROPER -0.2218
-4.4616 PROPERLY -0.2218
-4.4616 PROPERTIES -0.2218
-4.4616 PROPERTY -0.2218
-4.4616 PROPORTION -0.2218
-4.4616 PROPOSAL -0.2218
-4.4616 PROPOSALS -0.2218
-4.4616 PROPOSE -0.2218
-4.4616 PROPOSED -0.2218
-4.4616 PROPOSING -0.2218
-4.4616 PROSECUTOR -0.2218
-4.4616 PROSECUTORS -0.2218
-4.4616 PROSPECT -0.2218
-4.4616 PROSPECTIVE -0.2218
-4.4616 PROSPECTS -0.2218
-4.4616 PROTECT -0.2218
-4.4616 PROTECTED -0.2218
-4.4616 PROTECTION -0.2218
-4.4616 PROTECTIONIST -0.2218
-4.4616 PROTEST -0.2218
-4.4616 PROTESTS -0.2218
-4.4616 PROVE -0.2218
-4.4616 PROVED -0.2218
-4.4616 PROVIDE -0.2218
-4.4616 PROVIDED -0.2218
-4.4616 PROVIDES -0.2218
-4.4616 PROVIDING -0.2218
-4.4616 PROVINCE -0.2218
-4.4616 PROVISION -0.2218
-4.4616 PROVISIONS -0.2218
-4.4616 PROXY -0.2218
-4.4616 PRUDENTIAL -0.2218
-4.4616 PUBLIC -0.2218
-4.4616 PUBLICATION -0.2218
-4.4616 PUBLICATIONS -0.2218
-4.4616 PUBLICITY -0.2218
-4.4616 PUBLICLY -0.2218
-4.4616 PUBLISHED -0.2218
-4.4616 PUBLISHER -0.2218
-4.4616 PUBLISHERS -0.2218
-4.4616 PUBLISHING -0.2218
-4.4616 PULL -0.2218
-4.4616 PULLED -0.2218
-4.4616 PULP -0.2218
-4.4616 PUNITIVE -0.2218
-4.4616 PURCHASE -0.2218
-4.4616 PURCHASED -0.2218
-4.4616 PURCHASES -0.2218
-4.4616 PURCHASING -0.2218
-4.4616 PURPOSE -0.2218
-4.4616 PURPOSES -0.2218
-4.4616 PURSUE -0.2218
-4.4616 PURSUING -0.2218
-4.4616 PUSH -0.2218
-4.4616 PUSHED -0.2218
-4.4616 PUSHING -0.2218
-4.4616 PUT -0.2218
-4.4616 PUTS -0.2218
-4.4616 PUTTING -0.2218
-4.4616 QUALIFIED -0.2218
-4.4616 QUALIFY -0.2218
-4.4616 QUALITY -0.2218
-4.4616 QUARTER -0.2218
-4.4616 QUARTERLY -0.2218
-4.4616 QUARTERS -0.2218
-4.4616 QUAYLE -0.2218
-4.4616 QUEBEC -0.2218
-4.4616 QUESTION -0.2218
-4.4616 QUESTIONED -0.2218
-4.4616 QUESTIONS -0.2218
-4.4616 QUICK -0.2218
-4.4616 QUICKLY -0.2218
-4.4616 QUIET -0.2218
-4.4616 QUIETLY -0.2218
-4.4616 QUIT -0.2218
-4.4616 QUITE -0.2218
-4.4616 QUOTA -0.2218
-4.4616 QUOTAS -0.2218
-4.4616 QUOTED -0.2218
-4.4616 RACE -0.2218
-4.4616 RACIAL -0.2218
-4.4616 RADAR -0.2218
-4.4616 RADICAL -0.2218
-4.4616 RADIO -0.2218
-4.4616 RAIDERS -0.2218
-4.4616 RAIL -0.2218
-4.4616 RAILROAD -0.2218
-4.4616 RAIN -0.2218
-4.4616 RAISE -0.2218
-4.4616 RAISED -0.2218
-4.4616 RAISES -0.2218
-4.4616 RAISING -0.2218
-4.4616 RALLIED -0.2218
-4.4616 RALLY -0.2218
-4.4616 RALPH -0.2218
-4.4616 RAN -0.2218
-4.4616 RANGE -0.2218
-4.4616 RANGED -0.2218
-4.4616 RANGING -0.2218
-4.4616 RANK -0.2218
-4.4616 RANKED -0.2218
-4.4616 RANKING -0.2218
-4.4616 RANKS -0.2218
-4.4616 RAPID -0.2218
-4.4616 RAPIDLY -0.2218
-4.4616 RARE -0.2218
-4.4616 RARELY -0.2218
-4.4616 RATE -0.2218
-4.4616 RATED -0.2218
-4.4616 RATES -0.2218
-4.4616 RATHER -0.2218
-4.4616 RATING -0.2218
-4.4616 RATINGS -0.2218
-4.4616 RATIO -0.2218
-4.4616 RAW -0.2218
-4.4616 RAY -0.2218
-4.4616 RAYMOND -0.2218
-4.4616 RE -0.2218
-4.4616 REACH -0.2218
-4.4616 REACHED -0.2218
-4.4616 REACHING -0.2218
-4.4616 REACTION -0.2218
-4.4616 READ -0.2218
-4.4616 READERS -0.2218
-4.4616 READING -0.2218
-4.4616 READY -0.2218
-4.4616 REAGAN -0.2218
-4.4616 REAL -0.2218
-4.4616 REALITY -0.2218
-4.4616 REALIZE -0.2218
-4.4616 REALIZED -0.2218
-4.4616 REALLY -0.2218
-4.4616 REALTY -0.2218
-4.4616 REASON -0.2218
-4.4616 REASONABLE -0.2218
-4.4616 REASONS -0.2218
-4.4616 REBELS -0.2218
-4.4616 REBOUND -0.2218
-4.4616 REBOUNDED -0.2218
-4.4616 RECALL -0.2218
-4.4616 RECALLS -0.2218
-4.4616 RECAPITALIZATION -0.2218
-4.4616 RECEIPTS -0.2218
-4.4616 RECEIVE -0.2218
-4.4616 RECEIVED -0.2218
-4.4616 RECEIVING -0.2218
-4.4616 RECENT -0.2218
-4.4616 RECENTLY -0.2218
-4.4616 RECESSION -0.2218
-4.4616 RECOGNITION -0.2218
-4.4616 RECOGNIZE -0.2218
-4.4616 RECOGNIZED -0.2218
-4.4616 RECOMMEND -0.2218
-4.4616 RECOMMENDATION -0.2218
-4.4616 RECOMMENDATIONS -0.2218
-4.4616 RECOMMENDED -0.2218
-4.4616 RECORD -0.2218
-4.4616 RECORDED -0.2218
-4.4616 RECORDS -0.2218
-4.4616 RECOVER -0.2218
-4.4616 RECOVERED -0.2218
-4.4616 RECOVERY -0.2218
-4.4616 RED -0.2218
-4.4616 REDEEM -0.2218
-4.4616 REDEMPTION -0.2218
-4.4616 REDUCE -0.2218
-4.4616 REDUCED -0.2218
-4.4616 REDUCING -0.2218
-4.4616 REDUCTION -0.2218
-4.4616 REDUCTIONS -0.2218
-4.4616 REED -0.2218
-4.4616 REFERENCE -0.2218
-4.4616 REFERRED -0.2218
-4.4616 REFERRING -0.2218
-4.4616 REFINING -0.2218
-4.4616 REFLECT -0.2218
-4.4616 REFLECTED -0.2218
-4.4616 REFLECTING -0.2218
-4.4616 REFLECTS -0.2218
-4.4616 REFORM -0.2218
-4.4616 REFORMS -0.2218
-4.4616 REFUSAL -0.2218
-4.4616 REFUSE -0.2218
-4.4616 REFUSED -0.2218
-4.4616 REGAN -0.2218
-4.4616 REGARD -0.2218
-4.4616 REGARDED -0.2218
-4.4616 REGARDING -0.2218
-4.4616 REGARDLESS -0.2218
-4.4616 REGIME -0.2218
-4.4616 REGION -0.2218
-4.4616 REGIONAL -0.2218
-4.4616 REGIONS -0.2218
-4.4616 REGISTERED -0.2218
-4.4616 REGISTRATION -0.2218
-4.4616 REGULAR -0.2218
-4.4616 REGULARLY -0.2218
-4.4616 REGULATION -0.2218
-4.4616 REGULATIONS -0.2218
-4.4616 REGULATORS -0.2218
-4.4616 REGULATORY -0.2218
-4.4616 REITERATED -0.2218
-4.4616 REJECT -0.2218
-4.4616 REJECTED -0.2218
-4.4616 REJECTION -0.2218
-4.4616 RELATED -0.2218
-4.4616 RELATIONS -0.2218
-4.4616 RELATIONSHIP -0.2218
-4.4616 RELATIONSHIPS -0.2218
-4.4616 RELATIVE -0.2218
-4.4616 RELATIVELY -0.2218
-4.4616 RELEASE -0.2218
-4.4616 RELEASED -0.2218
-4.4616 RELIANCE -0.2218
-4.4616 RELIEF -0.2218
-4.4616 RELIGIOUS -0.2218
-4.4616 RELUCTANT -0.2218
-4.4616 RELY -0.2218
-4.4616 REMAIN -0.2218
-4.4616 REMAINDER -0.2218
-4.4616 REMAINED -0.2218
-4.4616 REMAINING -0.2218
-4.4616 REMAINS -0.2218
-4.4616 REMARKABLE -0.2218
-4.4616 REMARKS -0.2218
-4.4616 REMEMBER -0.2218
-4.4616 REMOVE -0.2218
-4.4616 REMOVED -0.2218
-4.4616 RENEWED -0.2218
-4.4616 RENT -0.2218
-4.4616 RENTAL -0.2218
-4.4616 REORGANIZATION -0.2218
-4.4616 REPAIR -0.2218
-4.4616 REPAY -0.2218
-4.4616 REPEATED -0.2218
-4.4616 REPEATEDLY -0.2218
-4.4616 REPLACE -0.2218
-4.4616 REPLACED -0.2218
-4.4616 REPLACEMENT -0.2218
-4.4616 REPORT -0.2218
-4.4616 REPORTED -0.2218
-4.4616 REPORTEDLY -0.2218
-4.4616 REPORTER -0.2218
-4.4616 REPORTERS -0.2218
-4.4616 REPORTING -0.2218
-4.4616 REPORTS -0.2218
-4.4616 REPRESENT -0.2218
-4.4616 REPRESENTATIVE -0.2218
-4.4616 REPRESENTATIVES -0.2218
-4.4616 REPRESENTED -0.2218
-4.4616 REPRESENTING -0.2218
-4.4616 REPRESENTS -0.2218
-4.4616 REPUBLIC -0.2218
-4.4616 REPUBLICAN -0.2218
-4.4616 REPUBLICANS -0.2218
-4.4616 REPUBLICBANK -0.2218
-4.4616 REPURCHASE -0.2218
-4.4616 REPUTATION -0.2218
-4.4616 REQUEST -0.2218
-4.4616 REQUESTED -0.2218
-4.4616 REQUESTS -0.2218
-4.4616 REQUIRE -0.2218
-4.4616 REQUIRED -0.2218
-4.4616 REQUIREMENT -0.2218
-4.4616 REQUIREMENTS -0.2218
-4.4616 REQUIRES -0.2218
-4.4616 REQUIRING -0.2218
-4.4616 RESCUE -0.2218
-4.4616 RESEARCH -0.2218
-4.4616 RESEARCHERS -0.2218
-4.4616 RESERVE -0.2218
-4.4616 RESERVES -0.2218
-4.4616 RESIDENTIAL -0.2218
-4.4616 RESIDENTS -0.2218
-4.4616 RESIGN -0.2218
-4.4616 RESIGNATION -0.2218
-4.4616 RESIGNED -0.2218
-4.4616 RESIST -0.2218
-4.4616 RESISTANCE -0.2218
-4.4616 RESOLUTION -0.2218
-4.4616 RESOLVE -0.2218
-4.4616 RESOLVED -0.2218
-4.4616 RESORT -0.2218
-4.4616 RESORTS -0.2218
-4.4616 RESOURCE -0.2218
-4.4616 RESOURCES -0.2218
-4.4616 RESPECT -0.2218
-4.4616 RESPECTIVELY -0.2218
-4.4616 RESPOND -0.2218
-4.4616 RESPONDED -0.2218
-4.4616 RESPONDING -0.2218
-4.4616 RESPONSE -0.2218
-4.4616 RESPONSIBILITIES -0.2218
-4.4616 RESPONSIBILITY -0.2218
-4.4616 RESPONSIBLE -0.2218
-4.4616 REST -0.2218
-4.4616 RESTATED -0.2218
-4.4616 RESTAURANT -0.2218
-4.4616 RESTAURANTS -0.2218
-4.4616 RESTORE -0.2218
-4.4616 RESTRICT -0.2218
-4.4616 RESTRICTED -0.2218
-4.4616 RESTRICTIONS -0.2218
-4.4616 RESTRUCTURE -0.2218
-4.4616 RESTRUCTURING -0.2218
-4.4616 RESULT -0.2218
-4.4616 RESULTED -0.2218
-4.4616 RESULTING -0.2218
-4.4616 RESULTS -0.2218
-4.4616 RESUME -0.2218
-4.4616 RETAIL -0.2218
-4.4616 RETAILER -0.2218
-4.4616 RETAILERS -0.2218
-4.4616 RETAILING -0.2218
-4.4616 RETAIN -0.2218
-4.4616 RETAINED -0.2218
-4.4616 RETIRE -0.2218
-4.4616 RETIRED -0.2218
-4.4616 RETIREMENT -0.2218
-4.4616 RETURN -0.2218
-4.4616 RETURNED -0.2218
-4.4616 RETURNING -0.2218
-4.4616 RETURNS -0.2218
-4.4616 REVENUE -0.2218
-4.4616 REVENUES -0.2218
-4.4616 REVERSE -0.2218
-4.4616 REVERSED -0.2218
-4.4616 REVIEW -0.2218
-4.4616 REVIEWED -0.2218
-4.4616 REVIEWING -0.2218
-4.4616 REVISED -0.2218
-4.4616 REVISION -0.2218
-4.4616 REVLON -0.2218
-4.4616 REVOLUTION -0.2218
-4.4616 REVOLUTIONARY -0.2218
-4.4616 REYNOLDS -0.2218
-4.4616 RHETORIC -0.2218
-4.4616 RICE -0.2218
-4.4616 RICH -0.2218
-4.4616 RICHARD -0.2218
-4.4616 RICHMOND -0.2218
-4.4616 RICO -0.2218
-4.4616 RIDE -0.2218
-4.4616 RIGHT -0.2218
-4.4616 RIGHTS -0.2218
-4.4616 RING -0.2218
-4.4616 RISE -0.2218
-4.4616 RISEN -0.2218
-4.4616 RISES -0.2218
-4.4616 RISING -0.2218
-4.4616 RISK -0.2218
-4.4616 RISKS -0.2218
-4.4616 RISKY -0.2218
-4.4616 RIVAL -0.2218
-4.4616 RIVALS -0.2218
-4.4616 RIVER -0.2218
-4.4616 ROAD -0.2218
-4.4616 ROBERT -0.2218
-4.4616 ROBERTS -0.2218
-4.4616 ROBERTSON -0.2218
-4.4616 ROBINS -0.2218
-4.4616 ROBINSON -0.2218
-4.4616 ROBUST -0.2218
-4.4616 ROCK -0.2218
-4.4616 ROCKET -0.2218
-4.4616 ROCKWELL -0.2218
-4.4616 ROGER -0.2218
-4.4616 ROGERS -0.2218
-4.4616 ROLE -0.2218
-4.4616 ROLL -0.2218
-4.4616 RONALD -0.2218
-4.4616 ROOM -0.2218
-4.4616 ROOMS -0.2218
-4.4616 ROSE -0.2218
-4.4616 ROSS -0.2218
-4.4616 ROTHSCHILD -0.2218
-4.4616 ROUGHLY -0.2218
-4.4616 ROUND -0.2218
-4.4616 ROUTE -0.2218
-4.4616 ROUTES -0.2218
-4.4616 ROUTINE -0.2218
-4.4616 ROW -0.2218
-4.4616 ROY -0.2218
-4.4616 ROYAL -0.2218
-4.4616 RUBBER -0.2218
-4.4616 RUDMAN -0.2218
-4.4616 RULE -0.2218
-4.4616 RULED -0.2218
-4.4616 RULES -0.2218
-4.4616 RULING -0.2218
-4.4616 RUMORED -0.2218
-4.4616 RUMORS -0.2218
-4.4616 RUN -0.2218
-4.4616 RUNNING -0.2218
-4.4616 RUNS -0.2218
-4.4616 RURAL -0.2218
-4.4616 RUSH -0.2218
-4.4616 RUSSELL -0.2218
-4.4616 RUSSIAN -0.2218
-4.4616 SAATCHI -0.2218
-4.4616 SACHS -0.2218
-4.4616 SAFE -0.2218
-4.4616 SAFETY -0.2218
-4.4616 SAID -0.2218
-4.4616 SAINT -0.2218
-4.4616 SALARIES -0.2218
-4.4616 SALARY -0.2218
-4.4616 SALE -0.2218
-4.4616 SALES -0.2218
-4.4616 SALOMON -0.2218
-4.4616 SALT -0.2218
-4.4616 SAM -0.2218
-4.4616 SAME -0.2218
-4.4616 SAMUEL -0.2218
-4.4616 SAN -0.2218
-4.4616 SANCTIONS -0.2218
-4.4616 SANDINISTA -0.2218
-4.4616 SANDINISTAS -0.2218
-4.4616 SANTA -0.2218
-4.4616 SATELLITE -0.2218
-4.4616 SATISFIED -0.2218
-4.4616 SATISFY -0.2218
-4.4616 SATURDAY -0.2218
-4.4616 SAUDI -0.2218
-4.4616 SAVE -0.2218
-4.4616 SAVING -0.2218
-4.4616 SAVINGS -0.2218
-4.4616 SAW -0.2218
-4.4616 SAY -0.2218
-4.4616 SAYING -0.2218
-4.4616 SAYS -0.2218
-4.4616 SCALE -0.2218
-4.4616 SCANDAL -0.2218
-4.4616 SCENE -0.2218
-4.4616 SCHEDULE -0.2218
-4.4616 SCHEDULED -0.2218
-4.4616 SCHEME -0.2218
-4.4616 SCHOOL -0.2218
-4.4616 SCHOOLS -0.2218
-4.4616 SCIENCE -0.2218
-4.4616 SCIENCES -0.2218
-4.4616 SCIENTIFIC -0.2218
-4.4616 SCIENTIST -0.2218
-4.4616 SCIENTISTS -0.2218
-4.4616 SCORE -0.2218
-4.4616 SCORES -0.2218
-4.4616 SCOTT -0.2218
-4.4616 SCREEN -0.2218
-4.4616 SCRUTINY -0.2218
-4.4616 SEA -0.2218
-4.4616 SEABROOK -0.2218
-4.4616 SEARCH -0.2218
-4.4616 SEARS -0.2218
-4.4616 SEASON -0.2218
-4.4616 SEASONAL -0.2218
-4.4616 SEASONALLY -0.2218
-4.4616 SEAT -0.2218
-4.4616 SEATS -0.2218
-4.4616 SEATTLE -0.2218
-4.4616 SECOND -0.2218
-4.4616 SECONDARY -0.2218
-4.4616 SECONDS -0.2218
-4.4616 SECRET -0.2218
-4.4616 SECRETARY -0.2218
-4.4616 SECTION -0.2218
-4.4616 SECTOR -0.2218
-4.4616 SECTORS -0.2218
-4.4616 SECURE -0.2218
-4.4616 SECURED -0.2218
-4.4616 SECURITIES -0.2218
-4.4616 SECURITY -0.2218
-4.4616 SEE -0.2218
-4.4616 SEEING -0.2218
-4.4616 SEEK -0.2218
-4.4616 SEEKING -0.2218
-4.4616 SEEKS -0.2218
-4.4616 SEEM -0.2218
-4.4616 SEEMED -0.2218
-4.4616 SEEMS -0.2218
-4.4616 SEEN -0.2218
-4.4616 SEES -0.2218
-4.4616 SEGMENT -0.2218
-4.4616 SEIZED -0.2218
-4.4616 SELECTED -0.2218
-4.4616 SELECTION -0.2218
-4.4616 SELF -0.2218
-4.4616 SELL -0.2218
-4.4616 SELLER -0.2218
-4.4616 SELLERS -0.2218
-4.4616 SELLING -0.2218
-4.4616 SELLS -0.2218
-4.4616 SEMICONDUCTOR -0.2218
-4.4616 SENATE -0.2218
-4.4616 SENATOR -0.2218
-4.4616 SENATORS -0.2218
-4.4616 SEND -0.2218
-4.4616 SENDING -0.2218
-4.4616 SENIOR -0.2218
-4.4616 SENSE -0.2218
-4.4616 SENSITIVE -0.2218
-4.4616 SENT -0.2218
-4.4616 SENTENCE -0.2218
-4.4616 SENTENCED -0.2218
-4.4616 SENTIMENT -0.2218
-4.4616 SEOUL -0.2218
-4.4616 SEPARATE -0.2218
-4.4616 SEPARATELY -0.2218
-4.4616 SEPTEMBER -0.2218
-4.4616 SERIES -0.2218
-4.4616 SERIOUS -0.2218
-4.4616 SERIOUSLY -0.2218
-4.4616 SERVE -0.2218
-4.4616 SERVED -0.2218
-4.4616 SERVES -0.2218
-4.4616 SERVICE -0.2218
-4.4616 SERVICES -0.2218
-4.4616 SERVING -0.2218
-4.4616 SESSION -0.2218
-4.4616 SESSIONS -0.2218
-4.4616 SET -0.2218
-4.4616 SETS -0.2218
-4.4616 SETTING -0.2218
-4.4616 SETTLE -0.2218
-4.4616 SETTLED -0.2218
-4.4616 SETTLEMENT -0.2218
-4.4616 SETTLEMENTS -0.2218
-4.4616 SEVEN -0.2218
-4.4616 SEVENTEEN -0.2218
-4.4616 SEVENTEENTH -0.2218
-4.4616 SEVENTH -0.2218
-4.4616 SEVENTIES -0.2218
-4.4616 SEVENTY -0.2218
-4.4616 SEVERAL -0.2218
-4.4616 SEVERE -0.2218
-4.4616 SEVERELY -0.2218
-4.4616 SEX -0.2218
-4.4616 SEXUAL -0.2218
-4.4616 SHAMROCK -0.2218
-4.4616 SHAPE -0.2218
-4.4616 SHARE -0.2218
-4.4616 SHARED -0.2218
-4.4616 SHAREHOLDER -0.2218
-4.4616 SHAREHOLDERS -0.2218
-4.4616 SHARES -0.2218
-4.4616 SHARING -0.2218
-4.4616 SHARP -0.2218
-4.4616 SHARPLY -0.2218
-4.4616 SHE -0.2218
-4.4616 SHEARSON -0.2218
-4.4616 SHED -0.2218
-4.4616 SHEET -0.2218
-4.4616 SHELF -0.2218
-4.4616 SHELL -0.2218
-4.4616 SHIELD -0.2218
-4.4616 SHIFT -0.2218
-4.4616 SHIP -0.2218
-4.4616 SHIPMENTS -0.2218
-4.4616 SHIPPED -0.2218
-4.4616 SHIPPING -0.2218
-4.4616 SHIPS -0.2218
-4.4616 SHOCK -0.2218
-4.4616 SHOE -0.2218
-4.4616 SHOES -0.2218
-4.4616 SHOP -0.2218
-4.4616 SHOPPING -0.2218
-4.4616 SHOPS -0.2218
-4.4616 SHORT -0.2218
-4.4616 SHORTAGE -0.2218
-4.4616 SHORTAGES -0.2218
-4.4616 SHORTLY -0.2218
-4.4616 SHOT -0.2218
-4.4616 SHOULD -0.2218
-4.4616 SHOW -0.2218
-4.4616 SHOWED -0.2218
-4.4616 SHOWING -0.2218
-4.4616 SHOWN -0.2218
-4.4616 SHOWS -0.2218
-4.4616 SHRINKING -0.2218
-4.4616 SHULTZ -0.2218
-4.4616 SHUT -0.2218
-4.4616 SHUTTLE -0.2218
-4.4616 SICK -0.2218
-4.4616 SIDE -0.2218
-4.4616 SIDES -0.2218
-4.4616 SIEMENS -0.2218
-4.4616 SIGN -0.2218
-4.4616 SIGNAL -0.2218
-4.4616 SIGNALS -0.2218
-4.4616 SIGNED -0.2218
-4.4616 SIGNIFICANT -0.2218
-4.4616 SIGNIFICANTLY -0.2218
-4.4616 SIGNING -0.2218
-4.4616 SIGNS -0.2218
-4.4616 SILVER -0.2218
-4.4616 SIMILAR -0.2218
-4.4616 SIMILARLY -0.2218
-4.4616 SIMON -0.2218
-4.4616 SIMPLE -0.2218
-4.4616 SIMPLY -0.2218
-4.4616 SINCE -0.2218
-4.4616 SINGAPORE -0.2218
-4.4616 SINGER -0.2218
-4.4616 SINGLE -0.2218
-4.4616 SIR -0.2218
-4.4616 SIT -0.2218
-4.4616 SITE -0.2218
-4.4616 SITES -0.2218
-4.4616 SITTING -0.2218
-4.4616 SITUATION -0.2218
-4.4616 SITUATIONS -0.2218
-4.4616 SIX -0.2218
-4.4616 SIXTEEN -0.2218
-4.4616 SIXTEENTH -0.2218
-4.4616 SIXTEENTHS -0.2218
-4.4616 SIXTH -0.2218
-4.4616 SIXTIES -0.2218
-4.4616 SIXTY -0.2218
-4.4616 SIZABLE -0.2218
-4.4616 SIZE -0.2218
-4.4616 SIZED -0.2218
-4.4616 SKEPTICAL -0.2218
-4.4616 SKILLS -0.2218
-4.4616 SKIN -0.2218
-4.4616 SLATED -0.2218
-4.4616 SLID -0.2218
-4.4616 SLIDE -0.2218
-4.4616 SLIGHT -0.2218
-4.4616 SLIGHTLY -0.2218
-4.4616 SLIPPED -0.2218
-4.4616 SLOW -0.2218
-4.4616 SLOWDOWN -0.2218
-4.4616 SLOWED -0.2218
-4.4616 SLOWER -0.2218
-4.4616 SLOWING -0.2218
-4.4616 SLOWLY -0.2218
-4.4616 SLUGGISH -0.2218
-4.4616 SLUMP -0.2218
-4.4616 SMALL -0.2218
-4.4616 SMALLER -0.2218
-4.4616 SMART -0.2218
-4.4616 SMITH -0.2218
-4.4616 SMOKE -0.2218
-4.4616 SMOKING -0.2218
-4.4616 SO -0.2218
-4.4616 SOARED -0.2218
-4.4616 SOARING -0.2218
-4.4616 SOCIAL -0.2218
-4.4616 SOCIALIST -0.2218
-4.4616 SOCIETY -0.2218
-4.4616 SOFT -0.2218
-4.4616 SOFTWARE -0.2218
-4.4616 SOLD -0.2218
-4.4616 SOLDIERS -0.2218
-4.4616 SOLE -0.2218
-4.4616 SOLID -0.2218
-4.4616 SOLIDARITY -0.2218
-4.4616 SOLUTION -0.2218
-4.4616 SOLUTIONS -0.2218
-4.4616 SOLVE -0.2218
-4.4616 SOME -0.2218
-4.4616 SOMEBODY -0.2218
-4.4616 SOMEHOW -0.2218
-4.4616 SOMEONE -0.2218
-4.4616 SOMETHING -0.2218
-4.4616 SOMETIMES -0.2218
-4.4616 SOMEWHAT -0.2218
-4.4616 SON -0.2218
-4.4616 SONS -0.2218
-4.4616 SONY -0.2218
-4.4616 SOON -0.2218
-4.4616 SOONER -0.2218
-4.4616 SOPHISTICATED -0.2218
-4.4616 SORT -0.2218
-4.4616 SOUGHT -0.2218
-4.4616 SOUND -0.2218
-4.4616 SOUNDS -0.2218
-4.4616 SOURCE -0.2218
-4.4616 SOURCES -0.2218
-4.4616 SOUTH -0.2218
-4.4616 SOUTHEAST -0.2218
-4.4616 SOUTHERN -0.2218
-4.4616 SOUTHLAND -0.2218
-4.4616 SOUTHWEST -0.2218
-4.4616 SOVIET -0.2218
-4.4616 SOVIETS -0.2218
-4.4616 SOYBEAN -0.2218
-4.4616 SOYBEANS -0.2218
-4.4616 SPACE -0.2218
-4.4616 SPAIN -0.2218
-4.4616 SPANISH -0.2218
-4.4616 SPARKED -0.2218
-4.4616 SPEAK -0.2218
-4.4616 SPEAKER -0.2218
-4.4616 SPEAKING -0.2218
-4.4616 SPECIAL -0.2218
-4.4616 SPECIALIST -0.2218
-4.4616 SPECIALISTS -0.2218
-4.4616 SPECIALTY -0.2218
-4.4616 SPECIFIC -0.2218
-4.4616 SPECIFICALLY -0.2218
-4.4616 SPECIFY -0.2218
-4.4616 SPECULATED -0.2218
-4.4616 SPECULATION -0.2218
-4.4616 SPECULATIVE -0.2218
-4.4616 SPECULATORS -0.2218
-4.4616 SPEECH -0.2218
-4.4616 SPEED -0.2218
-4.4616 SPEND -0.2218
-4.4616 SPENDING -0.2218
-4.4616 SPENT -0.2218
-4.4616 SPIRIT -0.2218
-4.4616 SPLIT -0.2218
-4.4616 SPOKE -0.2218
-4.4616 SPOKESMAN -0.2218
-4.4616 SPOKESWOMAN -0.2218
-4.4616 SPONSORED -0.2218
-4.4616 SPORT -0.2218
-4.4616 SPORTS -0.2218
-4.4616 SPOT -0.2218
-4.4616 SPOTS -0.2218
-4.4616 SPREAD -0.2218
-4.4616 SPRING -0.2218
-4.4616 SPUR -0.2218
-4.4616 SPURRED -0.2218
-4.4616 SQUARE -0.2218
-4.4616 SQUEEZE -0.2218
-4.4616 STABILITY -0.2218
-4.4616 STABILIZE -0.2218
-4.4616 STABLE -0.2218
-4.4616 STAFF -0.2218
-4.4616 STAFFERS -0.2218
-4.4616 STAGE -0.2218
-4.4616 STAKE -0.2218
-4.4616 STAKES -0.2218
-4.4616 STAMFORD -0.2218
-4.4616 STANCE -0.2218
-4.4616 STAND -0.2218
-4.4616 STANDARD -0.2218
-4.4616 STANDARDS -0.2218
-4.4616 STANDING -0.2218
-4.4616 STANDS -0.2218
-4.4616 STANLEY -0.2218
-4.4616 STAR -0.2218
-4.4616 STARS -0.2218
-4.4616 START -0.2218
-4.4616 STARTED -0.2218
-4.4616 STARTING -0.2218
-4.4616 STARTS -0.2218
-4.4616 STATE -0.2218
-4.4616 STATED -0.2218
-4.4616 STATEMENT -0.2218
-4.4616 STATEMENTS -0.2218
-4.4616 STATES -0.2218
-4.4616 STATION -0.2218
-4.4616 STATIONS -0.2218
-4.4616 STATISTICAL -0.2218
-4.4616 STATISTICS -0.2218
-4.4616 STATUS -0.2218
-4.4616 STATUTE -0.2218
-4.4616 STAY -0.2218
-4.4616 STAYED -0.2218
-4.4616 STEADILY -0.2218
-4.4616 STEADY -0.2218
-4.4616 STEAM -0.2218
-4.4616 STEARNS -0.2218
-4.4616 STEEL -0.2218
-4.4616 STEEP -0.2218
-4.4616 STEINBERG -0.2218
-4.4616 STEM -0.2218
-4.4616 STEMMING -0.2218
-4.4616 STEP -0.2218
-4.4616 STEPHEN -0.2218
-4.4616 STEPPED -0.2218
-4.4616 STEPS -0.2218
-4.4616 STERLING -0.2218
-4.4616 STEVEN -0.2218
-4.4616 STEVENS -0.2218
-4.4616 STICK -0.2218
-4.4616 STILL -0.2218
-4.4616 STIMULATE -0.2218
-4.4616 STOCK -0.2218
-4.4616 STOCKHOLDERS -0.2218
-4.4616 STOCKHOLM -0.2218
-4.4616 STOCKS -0.2218
-4.4616 STONE -0.2218
-4.4616 STOOD -0.2218
-4.4616 STOP -0.2218
-4.4616 STOPPED -0.2218
-4.4616 STORAGE -0.2218
-4.4616 STORE -0.2218
-4.4616 STORES -0.2218
-4.4616 STORIES -0.2218
-4.4616 STORY -0.2218
-4.4616 STRAIGHT -0.2218
-4.4616 STRATEGIC -0.2218
-4.4616 STRATEGIES -0.2218
-4.4616 STRATEGIST -0.2218
-4.4616 STRATEGY -0.2218
-4.4616 STREET -0.2218
-4.4616 STREETS -0.2218
-4.4616 STRENGTH -0.2218
-4.4616 STRENGTHEN -0.2218
-4.4616 STRESS -0.2218
